0.749837 0.468178 -0.810379 -0.13351 0.67023 -1.08851 -0.670796 0.42953 -0.601436 -0.250563 1.00148 -0.865399 1.11532 0.338237 0.220043 0.29444 0.62259 0.147223 1.052 -0.494259 -0.0763604 0.132553 0.43715 -0.917336 0.831841 -0.616791 -0.0960844 -0.0106536 0.542925 0.370813 0.504155 -0.804876 0.226026 0.822343 -0.0270626 0.408268 -0.294173 0.227975 -0.467149 0.454441 -0.83678 0.748787 -0.45262 0.634952 0.509962 0.5985 0.410645 0.0498824 -0.443234 -0.0442158 0.635834 -0.351151 -1.14977 -0.289174 -0.27532 0.394451 -0.372213 -0.588455 -0.0475396 -0.548961 -0.643717 -0.00595502 -0.388786 -0.35053 -0.804238 -0.264599 0.169957 -0.390761 -0.128277 0.191697 -0.668677 0.535957 -0.370186 -0.297882 -0.581842 -0.758549 0.61383 -0.476579 -0.122571 -0.781146 1.18991 -1.12384 -0.293753 0.554669 0.193193 0.320489 0.695082 -0.808235 0.520013 0.252321 0.444866 -0.431672 -0.0272821 0.610318 -0.843129 0.176209 0.237896 0.383844 -0.603374 -0.141441 -1.20672 0.496609 0.606865 0.608909 0.792732 -0.436198 -0.0539491 -0.457531 -0.286221 -0.784112 0.418718 0.248584 -0.687288 0.766924 -0.0865978 -0.199647 0.301892 0.453825 -1.03261 -0.502883 0.624104 0.401257 0.315022 -0.356888 0.913615 0.655313 -0.888042 0.646126 -0.40041 -0.909472 -0.625416 0.903929 0.476257 0.609802 0.0261427 0.241272 0.462541 -0.401959 -0.431559 -0.382846 -0.515534 -0.624209 -0.264767 -1.11816 0.621315 -0.00529111 -0.108805 -0.0456122 -0.87492 0.948179 0.031985 -0.788607 0.9598 0.0739741 -0.609868 -0.454991 -0.395039 0.311525 -0.550263 0.78604 -0.591066 -0.563611 0.887268 0.34782 0.542302 0.859535 0.268323 -0.555053 -0.104089 0.250358 -0.547213 0.791065 -1.12968 -0.359343 -0.54075 0.684426 -0.463998 0.797438 0.58658 0.178819 0.0204517 0.560358 0.334566 0.673268 -0.864697 -0.357979 -0.0675535 -0.867064 -0.0540411 0.451396 0.737657 0.980849 -0.87725 -0.199516 -0.470664 0.0810692 0.259174 0.484421 -0.466625 -0.388874 -0.374127 -0.605056 -0.474896 0.0788585 -0.0557539 -0.677104 -0.120289 0.550232 -0.45304 -1.01603 -0.274191 0.192429 0.567943 -0.311268 0.271563 0.430245 -0.283944 0.253554 0.711914 -0.16784 -0.905764 0.562623 -0.968799 -0.7724 0.576734 -0.174508 -0.866957 0.513383 0.0168223 0.784637 0.0458869 0.144048 0.714253 0.798138 -0.44394 -0.251383 -0.222373 -0.0807171 -0.908123 0.913989 -0.723208 -0.498177 -0.717242 0.8569 0.657532 0.376796 0.423372 0.286675 0.600118 -0.580769 -0.573677 0.891564 0.842277 0.380434 0.340911 -0.927858 0.351517 0.133426 -0.132865 0.0286965 -0.882708 -0.776519 -0.25618 0.0446743 -0.0855737 0.0919233 -0.489929 -0.341263 0.368225 -0.381655 0.00282646 -0.0791743 -0.160603 1.02192 0.925757 0.502501 -0.366339 0.670598 -0.299049 -0.197123 0.862101 -0.500694 0.372078 -0.163778 0.557878 0.408341 0.511026 -0.155826 -0.371257 -0.607559 -0.187982 -1.12626 -0.590702 -0.300259 -0.169775 0.176362 0.155911 0.591174 0.350592 -0.32868 -0.737775 0.396231 -0.257908 -0.336604 0.622229 0.327146 0.464858 0.69071 -0.0234564 0.0455055 -0.564768 0.864895 0.186191 -0.192178 -0.325236 -0.413416 0.353447 0.196265 0.505404 -0.560383 0.784032 0.468309 -0.309056 -0.302159 -0.182642 -0.215348 0.575435 0.862924 0.749826 -0.0240532 0.148818 0.00109933 0.0028111 0.840043 -0.598969 0.676264 -0.424266 -0.394727 -0.218599 -0.240984 -0.324349 0.889927 -0.7617 0.584227 0.490884 -0.0259563 0.326718 -0.712143 -0.15928 -0.0241259 -0.00987565 0.673967 -0.627489 -0.743142 0.277995 0.423855 -0.484164 -0.469509 0.372059 -0.599716 0.547042 -0.831986 -0.366715 -0.846693 0.433566 -0.0161331 0.182745 0.0691555 -0.399506 -0.654237 -0.270052 0.724346 0.275354 -0.837586 0.993123 -0.519405 -0.601635 -0.519414 -0.255051 0.427299 0.600475 0.950993 -0.582804 -0.302154 -0.380092 -0.126956 0.00281536 0.123643 -0.709026 0.261392 0.818523 -0.784863 0.247179 0.329097 -0.777291 -0.128962 -0.72696 0.271239 0.284412 -0.372837 -0.592084 0.61221 -0.05254 0.710603 0.215089 -0.0120083 -0.826434 0.650975 -0.691193 -0.742429 0.319387 -1.2193 -0.0332623 -0.625176 0.560934 -0.0469101 0.141141 -0.616855 -0.47812 0.526976 0.489449 0.997976 -0.951426 0.789268 0.558206 -0.56184 -0.777794 0.536755 0.334927 0.614802 -0.236822 -0.0402946 0.648409 0.185329 -0.173664 -0.174351 0.722928 -0.48381 -0.547451 0.265517 0.162013 0.414522 0.698103 -0.137548 0.0764389 0.52572 -0.222243 -0.126155 -0.0244422 0.176054 0.65233 0.856844 -0.523554 -0.414836 -0.10836 0.0322332 0.382206 -0.917508 0.564491 -0.568307 -0.74222 0.578046 0.153055 -0.350026 0.341348 0.896828 0.0431991 0.415081 -0.114833 0.575753 -0.23563 -0.651461 0.0685476 0.836593 -0.449058 0.478748 0.133163 -0.15548 -0.11796 0.373038 0.68948 0.656839 0.260825 -0.0135726 0.405751 -0.752387 0.338888 0.035295 0.0969451 -0.786953 -0.554875 -0.193784 0.339476 -0.264698 -0.119638 0.1006 -0.00170491 -0.122849 0.203195 -0.329241 0.707437 0.350455 0.0648153 -0.202055 -0.197405 -0.791387 -0.0808332 0.889449 0.915551 0.785282 -0.106504 -0.0898616 0.852884 -0.202704 0.0998347 0.575588 -0.858046 0.732269 0.626079 -0.272624 -0.357604 -0.14049 0.564341 0.334465 -0.068099 -0.00202038 0.0371415 0.106859 -0.515949 -0.221873 -0.886021 -0.16118 -0.647586 0.799815 0.236376 -0.542812 -0.31453 0.333135 0.240167 -0.364674 -0.904769 -0.335476 0.326904 0.974245 -0.0381847 -0.0681164 -0.28812 -0.0667741 -0.448599 -0.17153 -0.161509 -0.764919 -0.75586 0.776989 -0.0793333 -0.25199 -0.984093 -0.914183 0.493017 0.751487 -0.217513 -0.258215 -0.81281 -0.549345 0.68804 -0.782496 -0.32535 0.236062 -0.0543307 -0.368025 -0.821592 -0.164903 0.61836 0.48865 -0.780553 0.542294 -0.164372 -0.950827 0.0416792 0.158467 -0.205978 0.564396 0.156908 0.354414 0.910683 0.168218 0.212806 -0.467594 0.0309259 -0.532416 -0.191788 0.0485854 0.511125 0.351561 0.785407 0.212664 1.02253 -0.135099 0.0873834 -0.378577 -0.394229 0.0211443 -0.102366 -0.00247676 -0.841247 -0.0192945 0.535131 -0.387582 0.375873 0.743683 -0.481544 -0.671491 -0.397843 0.925556 0.588124 0.0451648 -0.354953 -0.486658 0.28196 -0.170503 -0.885888 -0.0998628 -0.0695719 0.575988 0.861709 0.52896 -0.638648 -0.575041 -0.540573 0.230426 0.979516 -0.844783 -0.542852 -0.344502 0.982852 -0.108979 0.115733 0.0794895 -0.193314 -0.474726 -0.366806 -0.293945 -0.0659733 -0.349001 -0.101011 0.935058 0.531607 0.593627 -0.603207 -0.212193 -0.24785 0.848405 -0.750718 0.511977 0.795165 -0.820327 0.571451 0.512711 -0.648305 -0.40185 0.074278 0.0771616 -0.315074 0.0449514 -0.897562 0.180315 0.0588186 0.119117 -0.534678 0.128427 -0.287007 -0.319821 0.663696 -0.209894 -0.575946 -0.193618 -0.429869 0.686824 -0.427722 -0.15485 0.588189 -0.254631 -0.778962 -0.832388 0.31808 1.32188 -0.405037 -0.718192 0.642059 -1.01689 1.01455 -0.229128 0.542994 0.0138491 -0.126299 0.322246 0.0421399 0.93909 0.633702 0.0428225 -0.558393 0.297449 0.405528 -0.0851415 0.163749 -0.598584 0.927684 -0.807487 -0.659615 0.0566104 -0.445474 0.0886169 0.0441955 0.831417 0.365372 -0.888763 -0.318102 -0.154416 -0.41104 0.533476 0.111488 1.01282 0.400623 -0.0403606 0.0771831 -0.713647 -0.0125914 -0.789064 0.0563962 -0.502564 -0.879492 -0.0452005 0.079785 -0.847895 0.201078 -0.634056 0.0756263 -0.507176 0.87388 0.189906 0.733683 -0.453391 -0.570805 0.723413 0.684516 -0.434198 0.311135 0.83869 0.181903 -0.192539 0.087986 0.45945 -0.625435 -0.219546 -0.10568 -0.0369464 0.825359 0.916336 -0.558532 0.484756 0.266304 0.43831 0.365353 0.0261227 -0.260264 0.0627913 0.528185 0.879363 0.557628 -0.737071 -0.373298 -0.886213 0.548896 0.692286 0.602954 -0.671774 -0.769476 -0.98509 -0.0526329 -0.264661 0.943623 0.722132 0.501653 0.978148 0.34171 -0.0358228 0.529955 -0.722478 0.795854 0.0860973 -0.239545 -0.416027 -0.128726 -0.281826 -0.0449171 0.635381 -0.230134 -0.460047 -0.568368 -0.504241 0.242899 -0.176617 0.964728 -0.332814 0.32632 -0.387608 -0.508144 1.12075 0.888347 -0.511192 0.5093 -0.636985 0.558264 0.649436 0.00667983 0.353395 -0.15704 0.04617 -0.32068 0.284065 -0.615755 -0.582624 -0.65814 -0.543829 0.304495 0.558686 0.299327 0.690497 -0.871846 -0.512426 -0.469859 0.387326 -0.519671 0.0324539 0.275191 -0.298496 -0.329139 0.546536 0.234439 0.281197 -0.216577 -0.32727 -0.598932 -0.249863 -0.706462 0.0564517 0.136589 0.566039 0.296316 -0.507851 0.498977 0.259585 0.488631 0.231801 0.259398 -0.352643 -0.576613 -0.210092 -0.293661 0.197376 0.0797956 0.126946 -0.492142 -0.906865 -0.204345 -0.826042 0.65088 -0.577479 -0.239729 -0.0798817 0.664261 0.474505 0.180807 0.119912 -0.0216679 0.0447139 -0.373119 -0.564258 0.274084 0.578433 0.308072 -0.328549 0.387683 -0.130272 0.721914 -0.312622 -0.830065 -0.0236526 -0.272065 0.532485 0.435617 0.378514 0.836506 -0.223425 -0.361254 0.589492 -0.94549 0.332353 0.717548 0.43323 0.445979 -0.0890627 0.371152 0.798271 0.239419 0.155124 -0.972196 -0.922439 0.226471 -0.739665 -0.746294 -0.0921502 -0.43973 -0.213137 0.776776 -0.247819 0.43881 -0.791361 -0.229117 0.499558 -0.359576 0.681252 0.275771 0.379584 0.130565 0.589787 -0.112449 -0.0571013 -0.0214912 0.0307269 -0.754905 0.317896 0.296599 0.0382828 0.140785 -0.907756 -0.3769 -0.776804 0.30738 -0.49777 0.0450344 0.0965909 0.537778 -0.190286 0.0468449 0.661786 0.695726 0.387192 -0.0675582 -0.172838 0.957804 0.837677 -0.590073 -0.169066 0.106906 -0.41797 -0.619179 0.814117 -0.24201 0.501233 0.728292 -0.199144 -0.767374 -1.01483 -0.732235 -0.590809 -0.180304 -0.0836007 -0.263339 0.0111187 -0.0471298 -0.803533 0.193805 -0.456883 0.689523 -0.400237 0.0425917 0.707456 0.574426 0.419902 -0.768831 0.336185 0.329089 0.814637 0.101071 -1.12263 -0.0118753 0.794441 0.474683 -0.5156 0.308392 0.995621 -0.0045965 0.535961 0.0836786 0.896678 -0.599693 0.312026 -0.435952 0.287612 