0.944639 0.375713 -0.962584 -0.384442 0.904721 0.825312 0.124607 0.768914 -0.967711 -0.816462 0.314676 -0.0606403 -0.306192 0.497055 -0.968505 0.164586 0.847652 0.67626 0.185156 -0.209815 0.231239 -0.814447 0.352092 -0.822932 -0.510727 -0.0912809 0.429243 0.991089 -0.444502 0.252297 0.57268 0.636158 -0.398663 -0.449507 -0.766228 0.395734 0.86346 0.833003 0.10593 -0.156896 -0.33787 -0.981628 -0.206458 0.0835902 0.924497 -0.403851 0.0168157 0.391827 0.523118 0.859371 -0.836909 0.805414 -0.255531 -0.249489 0.999695 -0.761406 0.198157 0.383282 -0.641896 0.678091 0.480148 -0.697317 0.60448 -0.977094 0.903099 0.546061 0.706841 -0.86981 -0.397339 0.565597 0.712559 -0.365669 0.340829 0.0813191 -0.547866 0.0975045 -0.688772 0.91519 -0.732414 -0.954955 -0.747551 0.884762 -0.397259 0.470809 0.201575 0.800287 0.243507 -0.64098 -0.81286 0.646535 -0.965413 -0.216621 0.170931 0.997648 -0.121159 0.150308 0.555805 0.729898 -0.163285 -0.839627 -0.414836 -0.881351 -0.849752 -0.972103 0.92052 -0.680243 0.941264 -0.46826 0.715079 -0.619183 0.504942 -0.539171 -0.473495 -0.219886 0.92053 -0.963073 -0.649144 -0.411668 0.81865 -0.175746 0.0815801 0.296385 -0.871644 -0.258526 0.746125 -0.606094 0.62254 -0.258941 -0.187956 0.774614 -0.917672 -0.346183 -0.14574 -0.0889855 -0.306776 -0.274115 0.81541 -0.999491 -0.0251208 -0.256874 -0.44676 0.231727 0.513108 -0.212012 -0.602737 -0.119493 0.588449 0.556267 -0.512456 -0.333116 0.513229 -0.268495 0.0794021 0.247141 -0.604962 -0.151716 0.946312 0.947626 0.24004 0.443656 -0.398557 0.742306 0.962049 -0.425895 -0.00993162 0.656684 -0.338517 0.224219 0.998474 0.695669 0.328347 -0.0952241 0.808716 -0.987138 -0.871256 0.975925 0.469648 0.839798 0.164584 0.955114 -0.435599 0.987443 0.253589 -0.948648 -0.0234543 0.818379 -0.281162 -0.75365 0.0809898 0.362414 -0.976211 -0.498408 0.189045 -0.143611 0.010722 -0.310652 0.148167 -0.605396 -0.545372 -0.149552 0.00343187 -0.713346 -0.168625 -1.00638 0.0189025 -0.401429 -0.690454 0.886403 0.0203548 -0.304119 -0.718474 -0.141175 0.901823 -0.336678 -0.104957 0.446613 0.0406952 -0.580551 -0.185011 0.658466 -0.173871 0.562818 0.401713 -0.863286 -0.404889 0.772393 0.896273 0.608938 -0.955073 0.468535 0.520682 0.734168 -0.0631725 1.00923 0.461239 -0.0985687 -0.601676 0.214151 0.936676 -0.0978766 0.557649 0.566827 -0.483261 0.778797 -0.44665 0.181477 0.39816 -0.564702 0.131351 0.942263 -0.310585 0.8905 0.66686 0.958375 0.927834 0.367469 -0.654659 -0.574552 0.306534 0.740568 -0.010241 0.598028 -0.529593 -0.0902719 0.530007 -0.683201 -0.0227047 -1.03962 -0.678893 -0.801245 -0.869451 -0.348248 0.644717 -0.821391 0.653912 -0.959974 0.0731327 -0.594072 -0.135354 0.410261 -0.266518 -0.404641 -0.638353 0.465314 -0.441307 -0.817924 0.152418 0.995368 0.561573 -0.861669 -0.911194 0.371446 0.80327 0.59745 -0.404096 0.828992 0.756898 -0.939105 0.666366 0.961139 -0.603635 -0.484614 -0.0725582 0.194877 -0.0281743 0.360754 0.468245 -0.248817 -0.418928 0.468463 -0.588029 0.550407 -0.142911 0.840807 0.873905 -0.286742 0.056256 -0.727548 0.771173 -0.330768 -0.186616 0.238049 -0.253104 -0.749516 -0.208087 -0.0597308 -0.0619116 0.500214 -0.247987 0.385319 0.432478 -0.116395 -0.850775 0.171758 0.502212 0.60509 0.0397046 0.371711 0.844085 -0.115233 -0.217886 0.799777 -0.794791 -0.166387 -0.888243 -0.452628 0.387819 0.761297 0.114448 -0.738158 0.20098 -0.378833 -0.712212 0.875956 -0.355185 -0.357045 0.114391 0.103324 -0.0924334 -0.00486362 -0.376716 0.724568 -0.509238 -0.139744 -0.947752 0.651707 -0.904737 0.730769 -0.167625 0.725932 -0.310639 0.199418 0.963705 0.222209 0.512536 1.02912 -0.486273 -0.393117 -0.105281 -0.521209 0.421266 -0.0138486 -0.404719 -0.589567 0.887962 0.0641872 -0.640047 0.907069 -0.833559 -0.962771 0.394816 -0.380587 0.372662 0.86169 0.0580656 0.749198 0.00587172 0.679998 0.989442 -0.765003 -0.0532214 0.317174 1.00904 -0.768185 -0.155474 0.613905 -0.525369 -0.320436 0.816695 0.657916 -0.0949562 -0.203367 0.246425 0.217243 0.488571 -0.132099 -0.14922 0.356066 0.0522422 0.611035 -0.91998 0.970153 -0.791498 0.365216 -0.540179 0.862398 0.406823 0.23741 -0.478191 0.340786 0.551351 -0.440777 0.405832 -0.8686 0.672155 -0.742348 -0.204671 0.564483 -0.303204 0.317327 0.303427 -0.667566 0.577225 -0.808849 -0.707068 -0.809988 -0.149425 0.93347 -0.902707 -0.444563 0.772139 0.0255946 0.505435 0.431741 -0.758528 0.0694006 -0.0526608 0.131513 0.889621 -0.208855 -0.413409 -0.142203 -0.976963 -0.136232 0.908032 0.854699 -0.934692 0.658621 0.839492 0.629891 -0.563111 0.112672 0.774416 -0.302817 0.304338 -0.931944 -0.0993988 0.426191 -0.389037 -0.722416 -0.914149 0.783584 0.655664 0.257341 0.682521 0.290469 0.470418 -0.652246 0.369141 -0.725407 -0.192458 0.631606 0.826437 0.141903 -0.833142 -0.550387 0.739892 0.0830807 0.148072 -0.674828 -0.571857 -0.120152 0.233782 -0.899716 0.608142 -0.894284 -0.478926 0.633465 0.958382 -0.241415 0.778766 0.406458 -0.13389 0.496845 0.912919 0.182287 -0.679093 -0.394724 -0.185126 -0.400083 0.959722 0.489613 -0.180131 0.0344266 0.430237 -0.0462182 0.277272 0.0731563 0.676821 -0.992476 0.222083 -0.915952 0.63506 -0.382809 0.627832 0.13479 -0.255266 0.225056 0.729548 0.923344 -0.047691 -0.64462 -0.586102 0.580815 0.925205 0.323567 0.709976 0.523671 0.857825 0.0398868 -0.461875 -0.780908 -0.58367 0.911556 -0.747707 0.777176 0.109721 0.726801 -0.94586 0.489181 -0.897458 -0.99384 -0.433415 -0.440808 0.0687199 -0.536446 0.238217 0.905374 -0.267867 -0.935409 0.478519 0.697828 0.777409 -0.444697 0.590142 0.96136 -0.446 -0.463809 -0.434386 -0.103463 0.145428 -0.801101 0.594429 -0.881918 -0.996977 -0.720472 0.809086 -0.332438 0.188086 0.0403114 -0.864602 0.211166 -0.0733481 0.784692 0.540467 0.213361 -0.0400169 -0.598995 -0.262305 -0.168355 -0.47331 0.811374 -0.647066 0.679477 0.177941 -0.677154 0.638965 -0.481967 0.362505 0.313291 0.664885 0.504058 0.639863 -0.727854 -0.697854 -0.723014 0.604602 -0.478988 -0.891709 -0.768035 -0.497599 -0.187202 -0.752687 -0.401273 0.677087 0.417349 -0.437599 0.245357 0.970254 -0.40725 0.837773 0.260992 -0.0960721 0.228578 0.134114 -0.683237 -0.835393 -0.424458 0.649843 0.884155 -0.357576 0.429827 -0.436934 0.599475 0.396161 0.646962 0.89659 0.366744 0.619163 0.893577 0.865024 -0.153447 -0.494765 0.326238 -0.82524 -0.233189 0.363564 -0.813553 -0.88434 0.786889 0.502087 0.698619 0.376292 0.264513 0.934737 -0.905474 -0.546935 0.819644 -0.503952 -0.214759 -0.965026 0.690786 -0.7622 0.864986 -0.255776 0.128269 -0.000893102 0.0481113 -0.291466 -0.101494 -0.969513 -0.00695447 0.87831 -0.320769 0.155211 0.0897002 -0.233824 0.68452 -0.410553 -0.272138 -0.311855 0.625634 0.336687 -0.472645 0.186722 0.769789 0.450545 0.721091 0.185095 -0.699271 -0.573901 -0.352519 -0.852962 -0.710501 0.542513 -0.0744891 0.780452 0.869217 0.602669 0.514144 -0.860281 0.19177 -0.632986 0.676266 -0.0699551 0.647899 -0.0642224 -0.0789074 0.882012 -0.877602 0.568013 0.0622317 -0.0557619 0.517452 0.984069 -0.680715 -0.787713 -0.500351 -0.250649 -0.367229 -0.818415 0.648 -0.220153 -0.821695 -0.575626 -0.142334 0.5143 -0.764801 0.310026 0.422909 -0.0722622 -0.607973 -0.365092 0.368131 0.719303 0.147351 0.960731 0.641174 0.0470142 -0.929197 -0.458924 0.677853 -0.972533 -0.55388 0.540208 0.949522 -0.576403 -0.433943 -0.568529 0.994934 -0.288369 -0.316874 -0.624838 0.563693 -0.0529922 0.712783 -0.625465 0.393047 -0.32045 -0.269254 0.0322594 0.190464 0.248094 0.335855 0.71186 0.388441 -0.230092 0.934298 0.932711 -0.767937 0.126865 -0.986145 -0.217566 -0.242653 0.479171 0.19895 0.230934 -0.787713 0.0819422 -0.105686 0.6068 0.781182 0.0406812 -0.239357 0.56505 -0.120701 0.89404 -0.441633 -0.303629 0.118625 -0.345195 -0.29722 -0.607349 0.410504 -0.671743 0.960631 -0.992676 0.734611 0.855586 0.868831 -0.152013 0.411359 -0.454634 0.689444 -0.436872 -0.808527 -0.942991 -0.288553 0.486373 0.473739 0.996155 0.712699 0.499802 0.964293 -0.813654 -0.60509 -0.0204779 0.0901212 0.679556 -0.396344 -0.61419 -0.521353 0.566024 -0.854001 -0.939024 -0.182165 0.650441 0.0181585 -0.205969 -0.5974 -0.95172 -0.144078 -0.278603 -0.30723 0.777459 0.420576 0.119236 0.181249 0.39485 -0.0688656 -0.346532 -0.106263 0.750438 -0.939728 -0.349855 -0.170962 0.913041 -0.603026 -0.050702 -0.342623 -0.660442 0.200903 -0.107395 0.970824 -0.662099 0.247414 0.0400098 0.437788 0.901059 0.591113 -0.867916 -0.876583 -0.0384228 -0.955199 -0.100481 -0.671285 -0.86443 0.194913 0.258566 -0.762105 -0.98428 -0.229839 -0.523338 0.715249 0.0949383 -0.828517 -0.1528 0.508095 0.328698 0.950698 -0.57415 0.217811 0.457015 -0.89758 0.458846 -0.634266 0.1536 0.954711 0.986328 0.800226 0.990722 0.447761 0.21734 0.808935 -0.644397 -0.357046 -0.766816 -0.772778 -0.652239 0.289887 -0.372217 -0.0803913 0.767652 0.219466 -0.461313 0.766595 0.109704 0.355893 -0.300096 -0.303283 -0.150113 -0.700308 -0.822138 -0.0245674 -0.0735801 -0.876705 -0.860286 0.998535 0.509935 -0.721603 0.369228 -0.00543334 0.13702 0.410994 -0.95243 0.921113 0.294809 0.929234 0.406588 -0.105387 0.486675 0.0747147 0.712951 -0.644084 0.811376 0.319287 -0.797321 0.412934 0.169688 0.967576 0.611744 -0.353008 -0.792901 -0.249245 -0.217383 -0.306375 -0.0444771 0.140117 0.800152 -0.239181 -0.792791 -0.72123 0.459607 -0.327827 -0.120382 0.382246 0.459649 -0.479583 -0.813696 0.251814 -0.0813576 0.379402 -0.0754134 -0.0462394 0.77219 0.215247 -0.397557 -0.839107 -0.360093 0.569323 -0.0524613 0.425374 0.815883 0.180082 -0.557673 -0.330376 -0.374537 0.692118 -0.945237 -0.917146 -0.880682 -0.881564 0.385243 -0.875953 -0.626401 0.0571641 0.0625631 -0.688911 0.085474 0.216501 -0.243727 -0.965495 0.0582918 0.277948 -0.691345 -0.632136 -0.134008 0.711356 0.899777 -0.0861311 -0.12591 0.760399 -0.532925 -0.776985 -0.651026 0.674645 0.915827 0.494986 0.923222 0.873134 0.083692 -0.0102444 0.600235 0.088853 -0.543769 0.96389 -0.999772 -0.0460039 0.900066 -0.732291 0.394165 0.154075 0.951087 0.671499 0.897275 -0.264748 0.62743 0.875729 0.926246 0.681242 -0.180025 -0.185404 0.711628 -0.958809 -0.949729 0.916468 0.0692282 0.0871137 -0.688726 -0.261991 -0.315615 0.681952 0.152834 -0.126646 0.543732 -0.709258 -0.775862 -0.861254 -0.901505 0.667408 0.775431 -0.758949 0.580187 0.0378735 -0.869503 0.739433 0.39954 -0.483248 0.200301 0.0708069 -0.345096 -0.515635 0.765756 0.155361 0.784427 0.0447661 -0.674333 0.116984 -0.359492 0.901993 -0.438001 0.90793 -0.257469 -0.851181 0.767438 0.925253 -0.92469 0.810559 -0.339691 -0.126647 -0.86855 0.108798 0.521043 -0.57384 0.760496 0.180788 -0.0694911 0.817784 0.288964 0.915487 0.638926 -0.382099 0.589752 0.0564737 -0.554283 0.289005 0.512045 0.918871 -0.805884 0.469279 -0.468706 -0.792321 0.0136268 -0.332562 0.727145 -0.185543 -0.364677 0.265542 -0.899655 0.392743 0.186438 -0.391766 0.488021 0.752227 -0.767211 -0.974418 -0.188331 0.436174 0.311269 0.569415 0.133457 -0.212007 0.857948 -0.788001 -0.972514 0.842285 0.872455 -0.380287 0.154197 -0.557673 -0.0475513 0.734869 0.0314057 0.627109 0.239248 -0.318522 0.101291 0.842952 0.879757 0.189856 0.37962 -0.695175 -0.516793 0.78368 0.320745 -0.359703 0.339221 0.323557 -0.557939 0.200591 0.490231 -0.339979 -0.765208 0.52108 0.103007 -0.337784 -0.86373 -0.0675252 -0.608154 -0.371319 -0.222224 -0.0628619 -0.833061 0.718139 0.25149 0.353191 -0.827937 0.698904 -0.871944 0.931811 0.888182 0.00403365 -0.526198 0.397697 -0.441143 -0.0748662 -0.403464 0.324389 -0.500475 0.587011 0.113502 0.445628 0.0992543 -0.0929695 0.794961 0.125591 -0.0820185 0.805896 -0.0911331 0.964968 0.683391 -0.128285 -0.739878 -0.742912 0.706351 -0.724235 0.10416 -0.855396 -0.959048 0.529494 0.89665 -0.646461 0.37142 0.0902356 -0.272433 0.0152886 -0.325861 -0.447357 -0.916358 1.00578 0.821829 0.263152 -0.824693 -0.269127 -0.00710247 -0.847743 -0.158041 0.173012 0.177958 -0.449347 -0.915882 -0.919496 -0.310648 -0.0522172 0.283975 0.841988 0.761103 0.326884 0.316006 -0.679123 -0.61388 -0.968324 0.269099 -0.0898056 0.339063 -0.125836 -0.65079 0.181847 0.499516 0.337573 -0.625067 0.367675 0.613039 0.804526 0.781075 0.137594 0.373527 -0.720282 -0.877181 0.735579 -0.940672 -0.124485 -0.741508 -0.969988 0.687829 -0.487132 0.348267 0.68798 -0.165092 0.86522 0.421537 0.755247 -0.937325 0.157193 -0.00641683 -0.987399 0.107593 -0.156352 -0.714245 0.365212 -0.0535169 0.991383 0.904603 -0.291983 -0.450744 0.720827 -0.144477 -0.656301 0.767205 0.260353 -0.737161 0.489199 -0.962116 0.796875 -0.177522 -0.888753 -0.729103 0.307821 0.762542 -0.644618 0.75548 0.940037 0.782931 0.900908 0.228316 -0.147826 0.520386 -0.399119 -0.627548 -0.382396 -0.602993 -0.317232 -0.72968 0.261713 -0.117147 0.875423 0.607959 -0.40141 0.162143 0.560815 -0.0208173 0.104366 0.668673 0.662547 0.920062 0.426907 -1.00771 -0.798147 0.35767 0.12965 0.669039 -0.0207532 0.629581 -0.362837 0.544027 0.769364 0.407244 0.244805 0.237188 -0.809845 0.0522585 -0.205365 0.288898 0.792962 -0.9588 0.971923 0.332113 0.258329 -0.943532 0.0605369 0.253027 0.57128 0.151769 0.918506 -0.400181 -0.925182 -0.154027 -0.0676741 -0.183757 0.737498 0.138297 0.821522 -0.994849 0.250861 0.938572 -0.82835 -0.302109 0.911357 0.351927 -0.576721 -0.71472 -0.114475 0.436689 0.0589312 -0.628146 -0.126448 -0.895641 -0.00813487 0.088099 0.821245 0.499811 -0.167921 -0.451998 -0.233393 0.776088 0.86711 0.109002 0.0699858 -0.793612 -0.474306 0.112206 0.700003 0.168319 0.298441 0.496308 0.393287 -0.597177 0.766433 -0.949769 -0.517258 0.183386 -0.441389 -0.413643 0.288229 -0.910196 -0.840715 0.891366 0.705619 0.66246 0.295956 0.847181 0.137082 0.884025 -0.309168 0.221806 0.0138686 0.556197 0.14389 0.0390683 0.569968 0.759494 0.478041 0.511759 -0.376176 -0.738122 0.545701 -0.272073 -0.765313 0.099826 0.710257 0.174828 0.154811 -0.689989 0.900907 0.919552 -0.383385 0.918819 0.93046 -0.0712553 0.644573 0.20973 0.866827 0.0207265 0.231049 0.380099 -0.548879 -0.714515 0.804773 -0.411114 -0.98987 -0.948154 0.0430527 0.542187 -0.85638 0.493637 -0.354167 -0.418195 -0.401349 -0.934996 0.141697 -0.594532 0.370106 -0.502672 0.195877 0.473405 -0.236318 0.870847 -0.367459 -0.881837 0.215386 0.299177 0.544123 -0.454208 0.797678 0.934191 -0.199413 -0.458432 -0.00356823 0.549951 -0.831374 -0.74174 -0.175878 0.647023 0.55034 0.926695 0.932615 0.329386 0.437178 0.593242 -0.435437 0.700536 -0.944043 0.0166788 0.17298 0.242207 0.412592 -0.300999 0.500689 0.806627 0.651614 -0.774312 0.990271 0.732612 0.901382 -0.198756 -0.778699 0.665761 0.0505447 -0.781537 -0.702322 0.661 -0.283731 0.270302 0.982727 0.119419 0.694998 0.588549 0.31581 -0.894468 -0.759784 -0.925458 0.609778 0.629238 0.465778 0.929844 -0.400157 0.450756 -0.797896 0.369763 -0.434831 -0.0413094 -0.415987 -0.929868 0.245889 0.704459 -0.273843 -0.594592 -0.675283 0.124424 0.766472 0.575488 0.367718 -0.941343 0.605945 0.634083 0.949034 0.578784 -0.351909 0.516343 0.826594 0.72045 0.857356 -0.88464 0.963012 0.671055 -0.554536 -0.52864 -0.793719 0.977111 0.501022 -0.861324 -0.5562 -0.666433 -0.130711 0.786981 0.040437 0.517624 0.602893 0.375225 0.0294504 0.287881 -0.917417 -0.711905 0.00289926 -0.436934 -0.325602 0.248939 0.94763 -0.857356 0.0114444 -0.938475 -0.113926 -0.344951 0.119236 0.916257 0.44792 -0.388592 -0.733573 0.601733 -0.517197 -0.185461 -0.0132145 0.68981 -0.243202 -0.477401 0.838862 -0.494552 -0.708304 0.678762 0.96704 -0.305277 0.912656 -0.480514 0.52562 -0.798037 0.564358 -0.125044 0.0282242 -0.529237 -0.0393889 -0.526088 0.687613 0.679248 0.126368 -0.438513 0.801264 0.823357 -0.601612 -0.849319 0.257031 0.460494 0.446028 0.212928 0.209387 -0.0747398 -0.128574 -0.878597 -0.00424207 0.831111 0.95703 0.663116 0.353596 0.668007 -0.882726 -0.0725452 -0.998916 0.313495 0.62657 0.393125 -0.355671 -0.735547 0.163914 -0.500297 0.471465 0.401424 -0.222184 0.0672775 -0.810734 -0.899291 0.773125 0.812128 0.697867 0.519456 -0.843867 0.327372 0.412519 -0.167455 0.131154 -0.195702 -0.660649 -0.732383 0.253173 0.823859 -0.0540359 0.736789 0.797684 -0.460321 0.919521 -0.109686 0.880667 -0.475261 -0.211519 0.347013 -0.077674 0.641708 -0.398635 0.00996429 -0.0118717 0.225257 0.623585 0.227515 -0.365093 -0.0934172 -0.844295 -0.42204 -0.285489 0.350842 0.512972 -0.847082 0.794612 -0.736914 0.253113 -0.880377 0.732767 -0.996785 0.755279 -0.573226 -0.0654946 0.964899 -0.983722 0.272053 0.846349 -0.744964 -0.964454 -0.508776 -0.598524 0.880319 0.627247 0.353008 0.720267 0.651662 -0.242958 0.745111 0.858605 0.30567 0.50849 -0.508375 -0.976361 0.0215734 -0.282482 0.673797 -0.0581906 -0.21086 0.485509 -0.181641 0.799832 0.610126 -0.909947 0.303966 0.296002 -0.667521 0.309781 0.843652 0.837859 -0.886102 -0.735756 -0.466964 0.589953 0.762993 0.41519 -0.660851 0.748662 -0.475934 0.55007 -0.754462 -0.884078 0.429913 -0.0648813 -0.807025 0.853561 0.732346 0.666536 -0.64343 -0.484123 0.202954 0.0173449 -0.275923 -0.425419 0.570325 0.559065 1.00555 -0.512132 0.373761 0.1495 0.055269 -0.0146805 0.203477 -0.316091 -0.618335 -0.709735 -0.599679 0.144275 -0.0635128 -0.352053 0.585111 0.303182 0.451796 0.990255 -0.624105 1.02751 0.710179 -0.281244 -0.720366 -0.898519 0.0160551 -0.855824 -0.128303 -0.805021 0.396717 -0.915488 -0.577565 0.0895611 -0.789666 0.90456 0.367931 0.209438 -0.557078 0.254136 -0.799303 0.822106 0.00125456 -0.887888 0.47845 -0.671721 0.232576 -0.0932359 -0.793362 -0.357997 1.04967 0.69009 0.542692 -0.555301 0.993776 0.941576 0.131603 0.233863 -0.296852 0.358528 0.736071 0.640431 0.366924 0.127983 -0.739235 -0.0451153 0.711944 -0.206938 0.17805 0.469821 -0.418328 0.382961 0.326587 0.494797 0.447044 -0.483134 0.248245 -0.244236 -0.766501 0.569476 0.0575954 0.298169 -0.234041 0.362513 0.157058 -0.571229 0.221817 0.69567 -0.716511 0.530748 -0.543504 0.511932 -0.646079 -0.648013 -0.701437 0.346691 -0.25582 -0.292581 -0.678269 -0.838736 -0.811445 -0.793877 0.116401 -0.0432832 -0.638837 -0.177504 -0.277133 -0.40389 -0.649976 -0.572665 -0.895 -0.245356 -0.250831 -0.359669 -0.474705 -0.0607612 0.861896 -0.617298 -0.443648 -0.00942543 0.341436 -0.181564 0.426002 0.75001 0.787319 0.576382 -0.143531 0.141424 0.0561932 0.208502 0.898353 -0.161181 -0.650223 0.990347 -0.299401 -0.70706 -0.405527 -0.793719 1.01137 0.525262 -0.702658 0.876726 -0.917642 0.274935 0.199039 0.173498 -0.742424 -0.77642 -0.0517668 0.0836387 -0.752301 0.606949 0.416819 -0.81869 -0.229555 0.0106222 0.666496 -0.101515 -0.226584 0.736892 0.964169 -0.365941 -0.603373 0.484615 -0.821136 0.747364 0.169771 -0.343633 -0.0181718 0.44664 -0.47248 -0.868022 -0.0113224 0.871578 -0.494552 -0.17478 0.99347 -0.269618 -0.0767555 -0.251262 -0.800276 0.582696 0.576786 -0.870369 0.191228 -0.971347 0.713409 -0.956341 -0.804537 -0.782293 -0.100036 0.216579 0.781929 -0.518438 0.852818 -0.424464 -0.232299 -0.341542 0.297947 -0.952945 -0.942275 0.686331 0.600208 0.107456 -0.103183 0.422698 -0.319005 0.830811 -0.775682 -0.543527 0.554647 0.88148 -1.01314 0.251777 -0.10289 0.992207 -0.0261662 -0.847736 0.61167 0.441882 -0.888244 0.71385 0.095745 -0.569234 -0.574225 0.535268 -0.696769 -0.583426 0.849465 -0.631092 0.0455031 0.288736 0.813139 0.25694 -0.475705 -0.092808 0.0489892 0.888994 -0.00139393 0.568946 -0.42466 -0.185439 0.281177 -0.136058 0.319099 0.842841 0.678097 0.40399 -0.50072 0.485 0.796411 0.589949 -0.246742 0.913626 -0.698581 0.090015 0.409565 -0.999329 0.931944 0.0925016 0.586976 -0.342947 0.323909 -1.00861 0.834587 0.845041 -0.314592 0.842224 0.0787538 -0.0289699 0.0167428 -0.803918 0.33909 0.608205 0.239995 -0.386483 0.562991 0.265354 -0.655058 0.373608 0.161404 -0.551431 0.713686 -0.272795 -0.930208 0.708243 -0.456832 0.678335 0.707389 0.251811 -0.100834 -0.515303 -0.256634 0.664651 -0.857692 -0.370332 0.327183 -0.47685 0.644703 -0.909838 0.164396 -0.378184 0.137227 -0.52882 -0.790864 0.883512 -0.359184 0.931644 -0.173113 0.880936 -0.498883 0.852434 0.995351 -0.259255 -0.127476 -0.157079 -0.545018 -0.812845 -0.146655 0.470484 0.882631 -0.978212 0.471175 -0.640493 -0.280883 0.955857 -0.32048 -0.515542 -0.0171931 0.551114 -0.19915 0.438594 0.992781 0.154184 0.00446535 -0.847126 -0.395833 -0.929896 -0.149266 0.574587 0.818865 -0.650746 -0.263405 0.428205 0.427943 0.29583 -0.198074 0.741425 -0.0867791 -0.191274 0.37388 -0.367435 -0.842711 -0.542787 -0.97076 -0.77925 0.37068 -0.768636 -0.0504294 0.545175 0.0899047 -0.435157 0.754225 0.661214 -0.13899 0.192483 0.345203 0.869457 0.510111 0.903012 0.174841 0.873653 0.635559 0.568975 -0.291633 0.577736 0.534171 -0.584032 0.143752 0.122056 0.0886177 0.395319 0.320746 -0.928353 -0.820096 0.849331 -0.116865 0.411791 0.168463 0.568826 -0.83647 -0.281494 0.48624 -0.441473 -0.75207 -0.604254 0.701098 0.682608 0.821162 -0.149205 0.342868 -0.629894 0.0143125 0.0915496 -0.95294 -0.187142 0.193351 -0.363227 0.988153 0.738164 0.583221 -0.582925 0.0881419 1.00792 -0.0665783 0.531988 0.21184 -0.168282 -0.561532 0.0571222 0.146252 0.455061 -0.317628 0.759339 0.630788 0.785821 0.935789 -0.0824305 -0.140228 0.820438 0.210251 0.267883 -0.817806 0.841644 0.903863 0.35684 0.409447 0.664807 0.970155 0.690244 0.989273 -0.813657 0.874178 -0.138778 0.526385 -0.0786624 0.432161 0.522225 -0.884098 0.519373 0.326472 -0.818228 -0.0880461 0.584521 0.785211 0.129002 -0.542161 0.795652 -0.412025 -0.582012 0.347597 0.189722 0.40572 -0.859864 0.684288 0.976182 0.326539 -0.541642 -0.453199 1.00063 0.901446 -0.406512 -0.849813 0.843604 0.715232 0.523837 0.774891 0.00886259 0.323524 0.483261 0.295276 0.169408 -0.943113 0.543016 -0.39732 0.978664 0.861668 -0.843203 -0.480611 0.49658 -0.928114 0.907437 -0.275694 0.640535 0.253751 0.142331 -0.0643666 0.697552 -0.091228 -0.916265 -0.179339 0.892742 -0.160518 -0.885262 -0.0531275 -0.568213 0.117273 0.352459 0.633168 0.221351 0.996643 0.558092 -0.308329 -0.601035 0.270141 0.736983 -0.0552586 -2.36365e-05 -0.620557 -0.0230028 0.912633 0.0748429 -0.733862 -0.854674 0.0589812 0.34631 -0.24127 -0.112286 -0.310013 0.254324 -0.726274 0.778773 -0.642678 -0.991559 0.882321 0.817927 -0.783197 -0.254799 0.956053 0.0203558 0.482162 -0.102756 0.956882 -0.254345 0.8344 0.148306 0.667275 0.170218 0.212579 0.301102 0.850876 -0.456102 -0.687909 -0.946775 0.126827 0.735219 0.00989554 -0.245081 -0.0857283 -0.195503 0.320727 -0.664969 0.227271 -0.139683 0.681143 0.10477 0.0381787 -0.961974 0.398846 -0.0471511 -0.771172 0.0466633 -0.724417 0.681203 -0.230541 -0.149321 0.804753 -0.339524 -0.997589 -0.940966 0.250406 0.850605 0.842999 -0.417494 -0.100409 0.225406 -0.315762 0.132781 0.868481 -0.255654 0.883114 0.11063 -0.336222 0.795953 -0.560106 0.907529 -0.688589 0.41673 0.937864 0.49913 -0.46556 0.992676 0.760002 0.527696 0.530564 0.0598468 -0.510361 0.251747 0.497787 0.103061 -0.564623 0.457808 0.941038 0.0150456 0.697439 -0.489731 -0.22837 0.0467849 -0.43376 0.405805 -0.604236 -0.206397 -0.183935 -0.857051 0.853206 0.0277413 0.454878 -0.277688 0.0692287 0.191949 0.493906 0.0864575 -0.716598 0.366973 0.30096 0.314487 -0.284711 -0.480064 0.0947804 -0.614876 0.531384 0.855525 -0.851314 -0.187719 0.175451 0.0740074 0.264931 0.480392 -0.87524 -0.646413 -0.921567 0.977844 0.134983 0.866634 0.756645 -0.251198 -0.96561 0.644293 -0.344593 -0.626714 0.131627 0.600725 0.49447 -0.710887 -0.695862 -0.467416 0.621433 -0.725446 0.816915 0.899581 -0.0949335 -0.0240183 0.945322 0.206096 -0.147191 -0.161046 0.459883 -0.216285 0.478133 0.720511 -0.953429 -0.182348 0.528884 -0.495313 -0.299509 -0.614776 -0.41988 0.0304781 0.173853 0.349418 -0.403069 0.662578 -0.44056 -0.0615207 0.543746 -0.193604 -0.985047 0.733402 -0.50835 0.613844 0.734925 0.0203265 -0.0153339 -0.639415 0.235633 -0.835017 -0.983093 0.630055 0.0175481 0.974609 0.345095 -0.294808 -0.390057 -0.289097 -0.417922 -0.545342 0.121598 -0.332023 -0.280436 0.0808891 0.405358 -0.834095 0.650791 0.981464 0.752011 -0.416024 -0.932858 0.900051 -0.838214 0.290405 0.492826 0.0927554 0.671592 -0.247841 0.191687 0.433882 0.211768 0.805155 -0.0776266 0.83923 -0.618799 0.532075 -0.331359 0.441953 0.159598 -0.68055 -0.31841 0.845207 -0.248407 -0.874114 -0.537881 -0.38252 -0.733507 -0.706994 -0.929019 0.277976 0.392317 -0.0603914 -0.735107 -0.628241 -0.237553 0.552355 -0.992737 0.0379345 0.149022 0.0382532 -0.790723 -0.347236 -0.00846339 0.249629 -0.364502 -0.365065 -0.661782 0.357389 -0.927352 -0.421421 -0.499624 -0.815117 0.25308 0.431786 -0.576824 0.391947 0.0466945 -0.0519483 -0.505729 0.791995 0.764745 -0.991809 -0.531228 0.500988 -0.802423 -0.385117 0.188186 -0.0384836 0.241647 -0.665768 0.993068 -0.136203 0.494538 -1.01095 -0.0483786 0.670127 -0.882763 0.937353 -0.758389 -0.328636 0.132088 -0.68244 -0.402556 -0.308838 0.347754 -0.741867 -0.0592421 0.780349 -0.868964 -0.274408 -0.851619 -0.0737052 -0.410077 0.259998 -0.686365 -0.181586 -0.292075 -0.435729 -0.901 -1.00274 -0.820299 -0.601091 -0.672231 -0.67742 0.46141 0.19736 0.0187781 -0.539957 -0.911376 0.952331 0.359941 0.328171 0.946848 -0.71778 -0.271651 -0.668627 0.81412 -0.950536 0.658614 0.979064 -0.447493 -0.601104 -0.342059 0.987728 -0.83647 -0.351993 -0.453572 -0.508855 0.453423 0.728517 0.490644 0.2624 0.761216 0.378149 -0.316979 -0.471599 0.101477 0.216297 -0.93758 -0.203672 0.0155906 0.643711 0.57563 -0.418595 0.645243 0.808062 0.575506 0.729103 0.460677 0.138768 -0.802028 0.632449 0.80239 0.873445 -0.272039 0.327292 0.93583 -0.609897 0.151851 0.247756 -0.0401334 0.1933 -0.383577 0.299942 -0.517253 0.692157 0.792891 0.700416 -0.574442 -0.102744 -0.437495 -0.867245 0.304801 -0.533665 -0.0307307 -0.387769 -0.879269 0.747124 0.0716642 0.518869 -0.203942 -0.637999 -0.520113 0.48062 -0.722396 -0.288888 -0.549846 0.380269 0.114467 0.126694 -0.747252 -0.288503 -0.551219 0.605079 -0.811011 -0.096516 -0.0895207 -0.427407 -0.281273 0.0421811 -0.8558 -0.545028 -0.848388 0.898251 0.0881069 -0.552171 0.938008 -0.324592 -0.958868 -0.503646 -0.51283 -0.554175 -0.720706 0.2357 -0.213522 0.253552 -0.0607315 0.742109 -0.0253717 -0.419765 -0.14236 -0.633259 -0.360865 0.823513 -0.934214 0.0917746 0.984041 -0.295993 0.241103 0.681531 -0.137056 -0.102817 0.81695 0.720634 0.830429 0.591653 -0.679325 -0.823472 0.234017 0.164967 0.0281517 -0.872267 -0.589797 0.191067 0.796948 0.474825 0.556818 0.890905 -0.946646 0.931875 0.225696 0.525325 0.934447 0.787131 -0.0193582 -0.660656 -0.300187 0.450984 0.322976 0.569018 0.580615 0.291726 0.935188 -0.371285 0.808288 -0.893649 0.948962 -0.13585 -0.102047 -0.100841 0.888178 0.339741 0.129559 0.954937 -0.306505 -0.232971 0.76359 0.987493 0.768922 0.205708 -0.857486 0.173068 -0.0225832 -0.207875 0.0821499 0.922311 -0.425434 0.229774 -0.902341 -0.995972 -0.277874 -0.648011 0.817869 -0.760599 0.99057 -0.254651 0.390232 -0.360117 -0.87837 0.227138 -0.804709 -0.853297 0.203711 0.812949 0.795009 0.271357 -0.497222 0.870525 0.617627 0.617091 -0.430292 -0.756985 -0.0979076 0.331239 0.570194 0.0451369 -0.196265 0.753533 -0.101895 -0.534286 -0.209032 0.636531 -0.928174 1.03569 0.70908 0.952287 0.330929 -0.367552 -0.648623 0.669466 0.182923 -0.564129 0.768669 -0.741836 -0.208987 0.904039 -0.295924 -0.349643 -0.539042 0.635969 0.163009 -0.844918 0.432836 -0.00387586 -0.295816 0.678743 0.582264 0.0136943 0.403847 -0.153326 0.790324 0.12327 -0.853332 -0.222335 -0.525475 0.512195 -0.3562 -0.727444 -0.443126 -0.0964281 0.633996 0.345246 0.380918 -0.880407 -0.303164 -0.875119 -0.207653 -0.564075 -0.159378 -0.599328 -0.668245 0.00454726 0.747368 0.793421 -0.843268 -0.434473 -0.24119 0.0855057 -0.0743541 0.491102 -0.00577496 0.279197 0.311818 0.252834 -0.703179 0.448761 -0.531318 0.911166 1.02427 0.722029 -0.428315 0.070622 -0.25918 0.371643 -0.531183 -0.595123 -0.734108 0.213975 0.407038 -0.0934172 0.654164 -0.754033 0.243313 0.0699812 -0.389223 0.325713 -0.145272 0.104088 0.067591 0.927854 -0.240491 0.309693 0.548135 0.837954 -0.978622 -0.892188 -0.784052 0.122746 0.708389 -0.773442 -0.0540553 0.498481 -0.106306 -0.878007 -0.662699 -0.00687283 0.183935 -0.038789 0.142613 0.397439 0.216952 -0.964061 0.535662 0.530209 0.631975 -0.0354445 -0.224507 -0.916952 0.926603 0.826696 -0.476135 -0.684152 0.733052 0.448203 -0.240178 0.627549 -0.495218 0.805758 0.719205 0.117681 0.572771 0.901367 -0.498019 0.192925 -0.0874708 0.581652 0.484176 -0.0989745 0.713054 0.771938 -0.994486 0.206156 0.115508 0.568882 0.659546 0.158673 0.268792 -1.06823 0.149869 -0.954221 -0.807665 0.0758221 -0.260295 0.700884 0.577348 -0.173476 -0.713149 -0.355874 -0.951603 0.823515 0.443444 -0.994547 -0.729771 0.97644 0.329508 -0.0244453 -0.439776 -0.686681 -0.730174 0.434066 0.533251 -0.182867 0.299133 0.735122 -0.644136 -0.615873 -0.912268 0.65697 0.30063 0.31086 -0.533539 0.733983 -0.299758 -0.802192 -0.758016 0.304861 0.534822 -0.470171 0.423622 0.109907 0.866024 -0.611621 -0.258278 -0.944273 0.583991 0.807639 -0.961005 0.615531 -0.967858 -0.825757 0.542527 -0.503956 0.488342 -0.777799 0.364296 -0.301523 -0.463873 -0.539815 0.736303 0.156059 -0.870475 -0.587635 0.139818 -0.873318 -0.267019 0.504261 -0.81436 0.672108 0.98175 0.619312 0.37376 -0.989807 0.696951 -0.0395521 0.860871 0.0928877 -0.443442 -0.240556 0.0133782 -0.551953 0.880496 -0.842041 0.0436609 0.605948 0.765005 -0.788997 -0.606471 -0.630653 0.48971 -0.37168 -0.935242 0.0466532 0.280679 -0.491129 0.398606 -0.207312 0.990234 -0.473983 -0.272378 0.112766 -0.263344 0.280313 0.144505 -0.157085 0.547267 -0.972856 0.842978 -0.491209 0.561465 -0.713707 -0.513936 0.379631 -0.0563945 -0.73508 0.276089 0.760071 0.717085 -0.189071 -0.924627 0.327767 0.238629 -0.122362 0.54864 -0.421003 0.886349 0.178137 0.434065 0.955016 -0.521958 0.794488 -0.242286 0.422714 -0.113149 -0.260813 0.545143 0.667452 0.724333 0.129416 -0.471008 0.212753 -0.77539 0.85737 -0.551312 -0.154569 -0.673163 0.496667 0.446465 0.473936 -0.938531 -0.669667 -0.777215 0.0336009 -0.631581 -0.63805 0.487899 -0.511521 -0.742851 0.924009 0.152379 -0.661672 -0.505905 -0.0959197 0.986816 0.967759 -0.162124 0.296155 0.212356 0.110642 -0.12357 -0.0991795 -0.389788 0.767772 0.579864 0.0542444 -0.260549 0.855412 0.504807 -0.983154 0.72985 -0.051973 -0.0912809 0.121067 0.382611 0.646779 0.20719 0.942991 0.0577105 -0.972289 -0.666005 -0.711661 0.238258 -0.347942 -0.486373 -0.0612506 0.676016 -0.69921 -0.70513 -0.426923 -0.641408 0.937559 0.00650044 0.545701 -0.799493 0.886532 0.473434 -0.0117496 0.987365 -0.750969 0.0179144 0.0561235 0.886837 0.620411 0.558397 0.88171 -0.161229 -0.830073 -0.381451 0.797091 -0.863354 -0.852391 -0.940916 -0.611308 -0.488501 0.877548 -0.656238 -0.0499564 0.0382397 -0.693594 0.156957 0.881344 0.156865 -0.845616 -0.82773 0.621998 -0.845943 -0.240028 -0.192846 -0.344035 0.38377 -0.358074 -0.250893 0.164708 0.5609 -0.119968 -0.910293 0.885429 -0.568977 0.347994 -0.136956 -0.259136 0.130303 -0.129663 -0.198993 -0.199752 -0.432696 0.397145 0.170335 -0.835305 -0.897243 0.190825 0.359096 0.20006 0.818026 0.100725 -0.794549 0.945738 -0.17777 0.118381 -0.200659 0.00825636 -0.253836 0.0782602 -0.475929 -0.392672 -0.201401 -0.32049 0.218152 0.346858 0.733428 -0.116763 0.244031 0.260357 -0.002545 0.761393 -0.66037 -0.285942 -0.584845 -0.205169 -0.137773 0.556232 -0.500343 -0.382747 -0.552843 -0.59508 0.21543 -0.346294 0.966857 -0.568529 -0.0386914 0.191821 0.255193 0.118252 0.328974 -0.745072 -0.291397 -0.258759 -1.01069 -0.687154 0.498037 0.0578086 -0.0680788 -0.13627 -0.768353 -0.239926 -0.64467 0.773847 -0.435773 0.13817 0.597543 0.916493 -0.687678 -0.108066 0.39378 0.540635 -0.979186 0.183874 -0.214856 0.00536568 0.377781 0.797607 -0.121675 -0.489953 -0.973793 0.870314 -0.0326716 0.209417 -0.229792 0.793089 0.157612 -0.502509 0.678172 0.67201 -0.240236 0.59958 0.213862 0.29835 0.236008 0.0524433 0.314287 -0.171117 -0.800897 -0.071688 0.489396 -0.245059 0.528197 -0.75713 0.744196 0.0301618 -0.482049 -0.355288 0.409062 0.591716 -0.5131 0.96831 0.1044 -0.968931 -0.902264 0.316671 0.248171 -0.251779 0.760126 0.0219232 -0.708493 0.493849 -0.550625 0.76627 -0.262213 0.84402 0.307779 0.103541 -0.434243 -0.595592 -0.0965774 -0.669755 0.428784 -0.456013 0.199993 -0.705027 0.346703 0.279412 -6.60426e-05 -0.579629 -0.831242 -0.7991 0.229867 0.75778 -0.504335 -0.918964 0.615626 -0.883203 0.568022 0.299274 -0.160445 0.209953 -0.794097 -0.190686 0.869747 -0.677672 -0.635966 -0.855225 0.799911 -0.235087 -0.651829 -0.716652 -0.0706093 -0.0983222 -0.762236 -0.505969 -0.700239 -0.354334 -0.367704 0.0453071 0.357816 0.510347 -0.229281 -0.228891 -0.906288 0.241532 -0.905525 -0.777908 -0.0340929 0.60805 -0.519702 -0.791864 0.15195 0.630174 -0.792704 0.621633 0.411458 -0.441422 -0.258495 -0.232361 0.492622 -0.827006 -0.225206 -0.263406 -0.901208 0.791125 0.04716 0.59348 -0.7355 0.512149 0.485137 0.281089 0.257789 0.243628 0.283824 0.187279 0.564192 0.252447 -0.844777 -0.225634 -0.626644 -0.89228 0.641245 -0.162571 -0.161092 -0.870483 0.181721 0.780035 -0.951112 -0.91267 0.61051 0.117374 -0.266205 -0.242279 0.923934 0.755582 -0.227819 -0.563079 -0.865075 0.711105 1.05076 -0.606874 0.761166 -0.334347 -0.143541 0.343158 -0.0307242 -0.662038 0.918392 0.980099 -0.142191 0.618855 -0.607605 -0.842762 0.804283 0.444184 0.695686 0.911853 -0.912057 -0.0899954 0.261259 -0.247753 0.651989 0.385102 0.49784 0.342213 -0.900386 0.252413 0.866634 -0.433484 -0.249563 0.4483 -0.86007 -0.977987 0.389618 0.814875 0.116611 -0.973572 -0.78667 0.81489 -0.219223 -0.218262 -0.565286 -0.459833 -0.741981 -0.329871 -0.257832 0.000694271 -0.0392386 0.408218 0.915232 -0.426178 0.262615 -0.118772 -0.222291 -0.439914 0.210299 0.988663 0.558751 -0.137764 -0.220211 -0.890689 0.161471 -0.721425 -0.222816 -0.271219 -0.465405 0.125563 0.351474 0.603425 -0.656402 -0.958523 0.431241 -0.606741 0.109323 0.00257258 0.62335 -0.203853 0.399678 0.543775 0.696439 -0.500533 0.74871 0.990264 -0.338854 0.0147103 0.90481 -0.507019 -0.147321 0.956626 -0.458559 -0.947569 0.664113 0.595202 -0.102268 -0.478177 0.597719 0.922151 0.276823 -0.203796 0.520447 -0.263405 0.682331 -0.885298 -0.410503 -0.167964 0.393908 -0.416755 -0.0423759 -0.887888 0.700396 0.688705 -0.644085 -0.602959 -0.192712 -0.732672 -0.415334 0.832779 -0.142735 0.757683 0.100009 -0.902463 0.565294 -0.82127 0.101867 0.660396 -0.57709 0.270544 0.852713 -0.686297 0.64572 -0.31324 -0.978691 -0.534876 0.896713 -0.712168 -0.220223 0.491214 0.658129 -0.540947 0.215091 -0.4399 -0.303108 -0.10438 -0.183761 0.309102 -0.888007 -0.7434 -0.112522 -0.340312 -0.226783 0.867572 -0.890867 -0.606306 0.0899143 -0.644305 -0.739255 0.211791 0.12197 -0.706345 -0.731916 -0.920082 -0.913394 -0.184742 -0.959994 -0.892619 0.432424 0.313523 0.948031 0.129785 -0.562739 0.561367 0.653628 -0.940135 -0.692948 0.427961 -0.266884 0.133268 0.0514847 -0.255694 0.913985 -0.061981 0.729722 0.0864421 0.595089 -0.90874 0.503789 0.37449 -0.184986 0.64049 0.776345 -0.538944 0.310994 -0.403785 -0.246677 -0.308936 0.1856 0.326103 0.940431 -0.148679 0.489543 0.548463 -0.819068 -0.288553 -0.636219 0.20011 0.767363 -0.532849 0.261222 -0.0828012 -0.0587592 -0.736585 -0.442374 -0.617438 -0.256788 -0.642587 -0.214654 0.885543 0.545043 -0.864905 0.147259 -0.469865 0.955865 0.23845 -0.116539 -0.412349 -0.944611 0.787801 0.588986 0.989023 -0.960877 0.359478 -0.478683 -0.862349 0.579977 -0.412914 0.925862 -0.258029 0.256596 0.938914 0.100164 -0.0485593 0.0613439 0.0515498 -0.778051 0.124779 -0.858289 0.706459 -0.390432 0.739381 0.827831 0.1267 -0.884958 0.846861 -0.573142 -0.0370955 -0.551551 -0.945751 -0.629691 0.333415 -0.976196 -0.615008 0.491325 -0.859758 0.674202 0.495613 0.310464 0.648526 0.471406 0.71022 0.957204 -0.489525 -0.53797 -0.0436515 -0.0472382 0.397398 0.0501251 0.647042 0.212167 0.838413 0.528745 -0.0479901 0.0827496 -0.293471 0.0767224 0.777453 -0.0585678 -0.21836 0.0809656 -0.652553 -0.817084 -0.611562 0.790963 0.0831686 0.107883 0.321386 0.152407 0.523589 -0.90831 -0.889135 -0.328328 0.516915 -0.726633 0.876978 0.34971 -0.935826 -0.784773 0.279527 0.621783 -0.3655 -0.759747 -0.81879 0.412537 -0.965216 -0.953852 0.0379345 -0.949583 -0.123447 -0.674351 -0.359692 0.378482 -0.878375 -0.945392 0.859069 -0.198616 -0.0200788 -0.245532 0.784163 -0.307137 0.463789 -0.199252 -0.837443 0.924313 1.00559 0.600596 -0.669258 0.025722 -0.577073 -0.732457 -0.602263 0.0470186 0.104122 -0.39689 0.0756291 0.823664 -0.136143 0.548898 -0.901063 0.566362 -0.978999 -0.486464 0.335625 0.555411 0.368164 -0.405579 -0.595235 0.442522 0.226408 0.323401 0.261862 0.6199 0.842141 -0.793714 0.580733 0.897543 0.0176103 -0.698706 0.0495102 -0.51488 0.704878 -0.21012 -0.642872 0.027253 -0.615101 -0.242592 0.654444 0.870654 -0.336742 -0.484784 0.701627 -0.255484 -0.619387 -0.525914 -0.565418 0.283832 0.280674 -0.610327 -0.516739 -0.324735 0.293503 -0.216291 -0.722876 -0.189379 -0.452284 0.319401 -0.869866 -0.943052 -0.03872 0.899045 -0.98413 -0.770501 -0.16776 0.484054 -0.42259 0.864958 -0.840453 -0.767313 0.869679 -0.783477 0.940872 0.894 0.445237 0.242081 0.439122 -0.7822 -0.669358 0.913273 -0.476471 -0.743336 -0.513064 -0.840761 0.101824 -0.738711 -0.767937 -0.271584 -0.270791 0.104221 0.306681 -0.663076 -0.526902 -0.035493 -0.952757 -0.642079 -0.93921 -0.887329 -0.720742 -0.597567 -0.598879 0.609289 -0.522051 0.0863055 -0.477671 -0.281413 -0.242997 0.302521 0.0105647 -0.124989 -0.735319 -0.68299 -0.00688934 -0.0301342 -0.484481 0.975158 -0.274697 0.824946 0.263649 0.37083 -0.128147 -0.377361 -0.556322 0.255226 -0.48851 0.126438 -0.237831 -0.482467 -0.0501927 -0.501194 -0.505485 -0.955166 0.393301 -0.471047 0.0512732 -0.732171 0.546731 -0.917551 -0.123044 0.721305 0.206519 -0.410566 -0.755669 -0.0896329 0.894223 0.374798 -0.496933 -0.388409 -0.347087 -0.64977 -0.694937 -0.232032 -0.00601215 -0.317728 0.888485 -0.653737 0.0745567 -0.409101 0.917905 -0.629383 -0.472884 -0.933042 -0.24192 0.736015 0.698538 0.973022 0.111667 0.464766 0.132054 -0.151952 0.85406 -0.548997 -0.415998 0.1077 0.685354 0.755547 -0.611438 -0.800104 0.910764 0.514512 -0.0180364 0.281533 -0.337504 0.523484 0.40025 -0.0238875 0.875993 0.560137 -0.438503 -0.223809 0.330809 -0.4924 -0.853915 0.653859 0.0741882 -0.659663 -0.113559 -0.561022 -0.469283 -0.962645 0.0811487 0.530869 0.621448 0.482955 0.142003 -0.496445 -0.80517 -0.582995 -0.0100406 0.169102 0.0895087 -0.499193 -0.88823 -0.33983 0.137731 0.557441 0.0872506 -0.909127 0.416749 -0.954429 -0.597767 0.377087 0.0943502 -0.14175 0.365667 0.724233 -0.916 -0.571459 -0.0773034 -0.542589 -0.000396741 -0.660695 0.205725 0.597644 0.506394 0.353679 0.609546 -0.10673 0.553962 0.0297042 -0.781003 -0.214919 -0.284712 -0.0578025 -0.607136 0.887909 0.977171 -0.405362 0.363465 -0.384762 0.292633 -0.975972 -0.523492 0.250007 0.0949014 -0.772161 -0.742019 -0.440291 0.442915 0.536668 0.700552 -0.150914 -0.444014 -0.242225 -0.156067 0.533559 -0.444889 0.426454 -0.60873 0.543607 -0.572321 -0.957658 0.157263 -0.791258 0.70813 -0.471874 0.262353 0.219042 0.0322151 0.700386 0.590917 -0.0892998 -0.209935 0.987288 0.716579 -0.91522 -0.197363 -0.257729 -0.0408032 -0.745293 0.367955 0.512873 -0.824519 0.248196 -0.198478 -0.00823989 0.385896 0.619703 -0.645548 0.362658 -0.0447343 -0.456466 0.0764869 0.265417 0.0114604 -0.510869 0.612489 0.304897 0.226568 0.672684 0.631636 0.192151 0.204629 0.211165 0.837275 -0.206397 -0.867306 -0.62743 0.236075 0.834809 0.668618 -0.280528 -0.357694 -0.484968 -0.646882 -0.91874 -0.123069 -0.952015 -0.673866 -0.987054 0.123292 0.175302 0.834333 -0.217638 0.296987 0.791908 0.0317578 -0.539375 -0.515862 0.552787 0.804192 0.116031 -0.230811 -0.224036 0.706412 0.522935 -0.129251 0.580287 -0.211274 0.419149 -0.0210123 -0.752601 -0.366145 0.654958 -0.406915 0.0175372 0.3606 -0.322461 0.571252 -0.737827 0.13911 -0.447536 0.543397 0.177542 -0.314238 -0.945388 -0.505401 -0.990073 -0.549696 -0.321115 -0.0908536 0.901181 0.614185 -0.804132 -0.0745947 0.414725 -0.353049 0.672078 -0.0946073 0.79376 0.799854 0.340404 -0.819444 -0.943782 -0.776491 -0.346933 0.168205 0.81304 0.258054 -0.023407 0.0785258 0.275718 0.490419 0.0908399 -0.0417612 0.949998 -0.920769 -0.224281 0.533311 0.624439 -0.363566 0.60291 -0.91525 0.293018 -0.670563 -0.607209 -0.829961 0.394933 0.642315 0.305909 0.525765 0.237283 -0.600639 0.0685062 -0.460221 -0.421728 -0.283772 -0.0699093 -0.254811 0.993825 0.341792 -0.999358 0.333048 -0.980297 -0.0421474 0.0893277 0.202795 -0.562731 0.776553 -0.682733 -0.0761817 0.66572 0.0144474 0.496644 0.775873 -0.00668667 -0.297694 -0.978114 -0.845351 -0.63692 -0.59739 0.865953 -0.162869 0.924525 -0.238137 -0.66456 0.351846 -0.401186 -0.295129 0.791297 -0.538964 -0.0318381 0.823762 0.375574 0.711539 -0.226478 0.286651 0.919657 -0.318685 0.866475 -0.440338 -0.153714 -0.26172 -0.508658 0.0695988 -0.584388 -0.728863 -0.43737 -0.485892 -0.85921 -0.973871 0.15858 -0.366009 -0.350735 0.606117 -0.654566 -0.721443 0.709876 0.425027 -0.981148 -0.404579 -0.874446 0.850642 -0.534165 -0.950682 0.611524 0.18255 0.101138 -0.748441 -0.227326 -0.597104 0.805366 -0.727185 0.294428 -0.436074 0.737494 -0.665266 -0.770656 -0.557386 0.860129 -0.361733 -0.293622 -0.403968 -0.906473 -0.854314 -0.323812 0.0258413 0.136112 0.285222 -0.440168 0.176733 -0.809076 -0.00582904 -0.274662 0.072509 -0.483154 -0.586604 -0.961173 -0.697272 0.908431 0.696179 -0.387489 0.881113 -0.913943 0.798533 0.430815 0.572461 -0.647298 -0.596094 -0.358953 0.763153 0.113959 -0.040833 -0.606111 -0.851809 -0.328081 -0.168662 -0.108676 -0.0283524 0.340739 0.234352 0.0577715 -0.446303 0.729953 -0.463345 -0.814594 -0.144634 0.490956 -0.609866 -0.200994 0.149118 0.346823 0.46284 -0.776034 0.238818 -0.0865446 0.173089 0.911865 -0.434626 -0.345006 -0.0557392 0.126608 -0.804246 -0.197952 -0.478775 -0.203957 -0.418867 0.755791 -0.38609 0.978454 0.813273 -0.706383 -0.370676 -0.807879 0.0769972 -0.422907 0.933185 -0.0554332 -0.518003 0.999607 -0.58774 -0.211331 0.385127 -0.0217426 0.622702 -0.712226 0.174292 -0.22986 0.359794 -0.94092 0.78797 -0.785742 0.710423 0.0282895 -0.680166 0.760918 0.352947 -0.755974 0.332523 0.515618 0.483244 -0.559489 -0.503562 0.626696 0.0394203 0.814912 0.867864 0.94935 0.868142 0.121734 0.731535 0.0338459 -0.822354 0.848404 -0.737774 0.603938 -0.887399 0.150096 -0.116752 -0.554423 -0.507054 -0.882748 0.1301 0.937986 -0.521714 0.456771 0.252865 0.107658 -0.451996 0.875521 0.376169 0.405345 0.502373 -0.34738 -0.446026 0.286059 0.0286345 -0.587881 0.469642 -0.567141 0.291677 -0.101803 0.125284 0.911872 -0.745174 -0.514374 -0.453539 0.366675 0.0570777 0.0839077 -0.817438 0.075045 0.726493 0.105087 -0.986734 -0.964715 0.0881743 0.319912 -0.36171 -0.748221 -0.699121 0.736015 0.343085 -0.750509 -0.244488 -0.335133 -0.972019 0.603672 -0.573124 0.612877 -0.763145 0.901811 -0.02451 0.988172 0.529305 -0.795012 -0.618742 -0.885122 -0.394696 0.728507 -0.393014 -0.875513 0.418108 -0.931935 0.270267 -0.168847 0.385177 -1.00224 0.459928 0.431291 -0.197917 0.0122079 0.834727 -0.466291 0.336773 -0.791273 0.547667 -0.41307 0.643425 0.10524 0.846702 0.479139 0.832207 0.528908 0.94459 -0.871456 -0.470687 0.836116 0.313231 -0.0853171 -0.666955 0.431795 -0.0346446 -0.88583 0.481935 0.13692 -0.60829 -1.00865 0.889457 -0.242934 0.610853 -0.669162 -0.439154 0.487248 0.541827 0.980831 0.0616964 -0.41698 0.947674 -0.99157 -0.502801 -0.295035 0.192137 0.178821 0.638295 0.818537 0.168371 -0.249034 -0.803472 0.017962 -0.117244 0.888368 0.190432 -0.459762 -0.610554 -0.2479 0.92147 -0.588295 0.516442 -0.928805 0.638553 -0.538482 0.603844 -0.592679 0.20957 0.922373 -0.396138 -0.629609 0.75168 -0.814499 -0.610968 -0.378125 -0.590442 0.606128 0.294351 -0.471969 -0.462564 -0.425361 0.732486 0.14718 0.18011 -0.721784 0.957185 -0.136544 -0.745926 -0.510905 0.284845 0.559618 -0.201174 -0.760544 1.00749 0.27554 -0.787748 -0.546707 0.422002 0.793843 -0.275618 0.102205 0.579167 -0.00634795 -0.766106 0.0295114 0.190405 0.774712 0.692621 0.32745 -0.888227 -0.77368 -0.00814376 -0.0852163 -0.237579 -0.603476 -0.296204 -0.525447 -0.454059 -0.487905 -0.860896 0.968303 -0.985018 0.781025 -0.372799 0.213404 -0.714026 -0.290796 -0.0837002 0.606795 0.326825 -0.468762 0.601856 -0.989319 0.909848 0.873043 -0.110623 -0.524096 -0.203039 -0.315949 0.24264 0.707888 -0.364222 0.746429 0.0158439 0.270165 0.456995 0.435982 -0.42531 -0.179764 0.668894 -0.747341 -0.0358101 -0.0514785 0.00555653 -0.491176 -0.384596 -0.616904 0.93524 -0.723563 -0.456282 0.992676 0.521592 -0.576098 -0.0992226 0.964645 -0.847524 0.867785 0.666531 0.199254 0.700087 -0.645637 -0.507646 -0.127318 -0.0675316 0.413736 -0.788223 0.416811 0.110491 -0.0114084 0.109289 -0.305517 0.329615 -0.69911 -0.561742 -0.233314 -0.181249 -0.302042 -0.488388 0.0441603 0.544542 -0.30607 0.460982 0.0129704 -0.699638 0.10118 -0.751469 -0.404971 0.917636 -0.366295 -0.942159 0.161298 -0.550733 0.624796 0.47743 0.301185 -0.860423 -0.659461 0.713901 -0.628021 -0.0137176 0.531597 0.191992 0.929075 -0.271035 0.771661 0.889523 -0.921323 -0.958068 0.0819422 -0.395001 -0.191015 -0.229041 0.482772 0.59624 0.383404 -0.982604 0.994774 0.825286 0.841609 0.881735 -0.342192 0.149744 0.676209 0.678326 0.133665 -0.231727 0.757317 -0.559923 -0.550768 -0.771538 -0.467757 -0.488266 0.454756 -0.6798 -0.936155 -0.45732 -0.844783 -0.173986 0.322428 -0.795587 0.752556 0.603015 -0.664296 -0.0206 -0.559923 0.131626 0.0891446 -0.638478 -0.61449 0.960997 0.779901 0.225501 0.567736 0.346782 -0.936094 0.334269 0.502853 0.323405 0.0889615 -0.507736 -0.9635 0.577502 0.124058 -0.0951872 -0.484848 0.184545 -0.399762 0.307047 0.648122 -0.729057 0.373582 -0.574535 0.374683 0.665035 -0.977599 -0.667039 0.0459516 0.597822 0.994629 0.262368 0.238197 0.519333 -0.588 -0.561205 0.504624 -0.913572 -0.650197 -0.506882 0.382977 0.394024 -0.599963 -0.978759 -0.0309763 -0.496689 -0.667043 0.850154 -0.631031 -0.664849 -0.330669 0.573791 -0.655739 -0.0103126 -0.0255223 0.921302 0.458052 0.547785 -0.322446 0.504196 -0.970702 0.435469 0.275246 0.572619 -0.743095 0.396039 0.639943 0.212561 -0.282754 0.127903 0.343608 -0.311441 -0.327067 0.676687 0.751527 0.404131 -0.577072 0.618909 0.712416 -0.925281 0.0409016 0.11802 0.673398 0.673628 0.785484 -0.133626 -0.045469 -0.334741 -0.4625 -0.888714 -0.790277 0.2677 0.56851 -0.390759 0.535142 0.980407 0.877682 -0.217078 -0.612171 0.273843 -0.47557 0.0146794 0.915465 0.812645 -0.801012 -0.807338 0.585505 0.828039 0.369717 -0.443465 -0.0945952 0.176885 -0.759614 -0.13829 -0.964601 -0.298524 0.0456248 0.0919307 -0.784501 -0.539533 0.724989 -0.468741 0.587842 0.209754 0.404574 -0.602724 0.440779 -0.0138859 0.0989715 0.184545 -0.356633 0.16134 0.807464 0.604039 -0.000499463 0.572734 0.357584 0.274744 0.399081 0.262479 -0.709532 -0.792786 0.565435 -0.476859 -0.775668 0.219733 0.29536 -0.359973 -0.182853 -0.796771 0.738202 -0.0729174 -0.296839 -0.694932 -0.149571 0.729179 -0.159825 0.389752 0.722129 -0.0981321 0.480744 -0.580851 0.458476 -0.766652 0.0122361 -0.942016 0.56751 0.448173 -0.940454 0.528922 0.716562 -0.501788 0.282126 -0.147854 0.50924 0.392499 0.894528 -0.770085 -0.939459 -0.743007 0.335074 -0.988891 -0.4691 0.474837 0.691179 0.226145 0.0923181 -0.962484 -0.259797 0.492188 0.1793 0.867553 0.155353 -0.393976 -0.0861604 -0.387156 -0.885307 -0.162782 -0.309472 -0.188623 -0.119832 -0.995993 -0.71683 0.253841 -0.92654 -0.905127 -0.438319 -0.196375 -0.372787 -0.883297 0.935606 0.0937002 -0.64268 0.652626 0.696393 0.353709 0.497226 0.414671 -0.515628 -0.827184 0.534271 0.902439 -0.370092 0.776455 -0.196837 -0.772727 -0.73286 0.379854 -0.227357 0.82256 0.543802 -0.157695 -0.10639 0.909178 0.68773 0.863463 0.78311 -0.266884 -0.434309 0.574873 -0.624958 0.497536 0.649598 0.554635 0.249376 0.582175 -0.619993 0.585873 0.451824 0.285292 -0.791511 -0.0521559 0.253463 0.227858 0.075626 -0.53314 0.669388 0.965691 0.638119 -0.801628 -0.985678 -0.97447 0.246256 -0.59247 0.68655 -0.178869 0.701468 0.588343 0.203032 -0.0203339 0.494761 -0.620443 0.6779 0.277454 -0.0558306 -0.207 -0.106612 0.534281 0.764567 0.0681236 0.540989 0.620007 -0.386913 1.03908 0.365087 0.150776 0.337683 0.348781 0.526862 -0.0654302 -0.567498 0.769338 -0.416547 0.894345 0.043672 -0.690105 0.492071 -0.351764 0.148671 -0.51409 -0.334631 -0.683791 0.327754 0.650256 0.594183 -0.345959 -0.340253 -0.117852 0.830853 -0.367535 0.178468 -0.560781 -0.841627 0.356846 -0.0825759 0.791973 -0.0191238 -0.0546705 -0.368639 0.980675 -0.167645 -0.477645 -0.0475173 0.450133 -0.269443 0.16369 -0.743582 0.11837 0.0509767 0.571267 0.871355 0.397774 -0.951623 0.55689 -0.817854 0.745845 0.866974 0.224908 -0.281298 -0.373806 -0.958478 0.208211 0.88108 -0.878053 -0.653267 0.974956 0.693114 0.686411 -0.0946989 0.0732139 0.971679 0.435774 -0.533188 -0.601829 -0.365645 0.472393 -0.75554 -0.158884 -0.789251 0.209989 0.697985 -0.838187 -0.109991 -0.911053 -0.111602 -0.140323 -0.806013 -0.264876 -0.341858 -0.198007 -0.993071 0.561116 0.102789 -0.00649473 0.377878 -0.420615 0.832453 0.13065 -0.674612 0.667409 0.279763 0.275067 -0.468149 -0.27232 0.903485 -0.468355 0.924736 -0.137799 -0.466794 0.340362 -0.578958 -0.156569 0.375485 0.245091 -0.81498 0.0167668 -0.818164 0.640866 0.484038 -0.580109 -0.315406 0.519141 -0.367184 -0.70663 -0.72454 0.0253609 0.0753502 0.798944 -0.309671 -0.220236 0.348066 -0.351215 0.89068 -0.38878 0.512968 -0.331625 0.258946 0.30949 -0.552102 0.533996 -0.403553 -0.631281 -0.590334 -0.938158 -0.464152 0.938795 -0.282029 0.384035 -0.597679 -0.402035 -0.580539 -0.312922 0.416695 0.916807 0.625172 0.973754 -0.79499 0.585383 -0.506203 0.715917 0.641717 0.205067 -0.655889 -0.634506 -0.814406 0.575851 -0.716444 0.943259 0.198388 0.416503 -0.123718 -0.810275 -0.100227 -0.216038 0.566556 -0.459929 -0.940299 0.691988 -0.245395 0.467801 0.852099 0.862972 0.260414 -0.0446486 -0.327596 -0.27418 0.126295 -0.309933 0.171646 -0.700445 0.217841 -0.908444 -0.940839 0.0956589 -0.970076 0.371544 0.0896004 0.888302 -0.773946 -0.0233684 -0.186457 0.618478 -0.329382 -0.88018 0.438684 -0.0437497 0.668263 -0.922478 0.676337 -0.683381 0.410932 -0.910031 -0.853572 -0.240717 -0.602821 -0.407804 -0.0800691 0.0362358 -0.663893 0.341561 0.0844649 -0.830277 -0.0607706 -0.503296 0.782276 0.373212 -0.866515 -0.0321821 -0.00398483 -0.567051 -0.426938 0.914422 0.864052 0.299348 -0.251294 0.790595 0.947153 -0.51561 -0.676626 -0.96118 0.440291 0.858851 -0.0509443 0.0200194 -0.432688 0.962661 -0.727536 -0.23162 0.227917 -0.696884 0.557884 0.65827 0.368488 0.489468 0.373234 -0.753366 0.147544 0.156468 0.319545 0.251428 -0.975075 0.690728 -0.0162226 -0.0510223 -0.286477 0.986389 -0.168188 -0.782952 0.5571 -0.730559 0.291511 0.713071 -0.933036 -0.291643 -0.32954 -0.184674 0.96824 0.510551 0.432845 -0.513554 0.230289 -0.717555 -0.876382 -0.925783 -0.121564 0.681921 -0.799955 -0.521425 0.225397 -0.86166 0.568441 0.287415 0.801447 0.254433 -0.0873745 0.877865 -0.809808 0.555579 0.799483 0.334603 0.0373269 -0.459793 -0.635249 -0.831847 -0.178557 0.596624 0.00162154 -0.101368 -0.193834 -0.270651 -0.570644 -0.564491 -0.0780269 -0.125256 -0.654252 0.934409 -0.726361 0.787101 0.379072 -0.726074 0.538133 -0.893551 0.713065 -0.222266 0.473546 -0.903251 0.986136 -0.5876 0.742333 -0.800235 0.56606 0.859197 -0.297685 -0.147534 0.459386 -0.645447 0.596793 0.573852 0.343649 0.330496 -0.113601 -0.85704 0.859699 0.279327 0.179734 -0.441005 0.782712 0.410242 0.6068 0.933409 -0.260842 -0.637562 -0.82165 0.250996 0.74572 -0.669375 0.793594 -0.503683 0.862121 -0.958552 0.35777 -0.567964 0.154309 0.384961 -0.498457 -0.908045 -0.53735 -0.108963 -0.333852 0.898206 -0.806706 0.19916 0.864874 0.787297 -0.507452 0.422694 0.217139 0.937193 -0.108127 0.408918 -0.462569 0.642923 -0.737701 0.372554 0.829019 -0.933984 -0.302503 0.341981 0.0772159 -0.931127 -0.690039 -0.870108 0.658811 0.0774679 -0.43263 -0.809127 0.76989 -0.630727 0.382047 -0.658862 0.0606559 -0.730171 0.145748 -0.711434 -0.22013 -0.142918 0.0378124 0.0619831 -0.120396 0.989804 0.269391 0.700202 -0.699396 0.747612 0.976279 0.734647 0.741021 0.373552 -0.306327 -0.945988 0.167378 0.656229 0.0460567 0.717655 0.678518 0.238855 -0.0660846 0.473597 0.577054 0.198279 -0.714945 0.0307932 -0.727226 -0.377728 -0.196692 0.203711 -0.723441 0.9223 -0.667433 -0.762073 -0.422382 -0.993084 0.561658 -0.136108 0.68951 -0.607939 0.983286 0.677343 0.659124 -0.778524 -0.184383 0.408104 0.486989 0.519478 0.971435 0.796925 0.155317 -0.622486 -0.55736 0.21897 -0.514389 0.366497 0.277932 0.091525 -0.623096 0.231971 -0.135531 0.381028 -0.431376 -0.144749 0.262246 -0.20486 0.276619 0.584348 0.469145 -0.736549 0.0281672 -0.0111005 -0.616854 0.208625 0.95948 -0.915214 0.34931 0.315204 0.0525224 0.184729 0.00875881 0.116245 -0.668752 -0.755364 -0.796197 -0.380413 -0.0201117 -0.451827 -0.51915 -0.985168 -0.318461 -0.918516 0.0632038 0.428083 -0.159825 -0.225745 -0.610584 -0.494675 -0.368389 0.75573 -0.899899 -0.759697 -0.670095 0.439436 -0.751396 0.590686 -0.292398 0.571093 -0.592761 -0.58916 0.487289 -0.875546 -0.770196 -0.985961 -0.0937834 -0.142552 -0.966185 0.675283 0.457076 -0.659704 -0.0350673 -0.611713 0.865316 -0.730587 0.305521 -0.810975 -0.626798 0.878512 -0.50963 -0.641037 0.375687 -0.737602 0.394818 -0.182165 -0.506394 0.416181 -0.553819 -0.979308 -0.869564 0.819575 -0.858333 0.674184 -0.421186 0.361553 0.514695 0.577807 -0.258339 0.426548 0.1217 -0.0922703 0.527275 -0.0398786 -0.879293 0.258022 0.985687 -0.702943 0.970312 0.743197 0.25736 0.646523 -0.621033 0.488856 -0.651897 0.877859 0.961241 0.787469 -0.140294 -0.351115 0.28605 0.293435 -0.283181 0.503525 -0.207618 -0.479344 0.924341 -0.178191 0.159825 -0.0372111 -0.55117 -0.543507 -0.297913 0.137937 0.225976 -0.241373 0.325099 -0.0599975 -0.439317 -0.890451 0.741914 -0.4393 -0.37022 0.218419 0.154224 0.120151 -0.596057 -0.442549 -0.567553 0.749382 -0.872005 0.538438 -0.934327 -0.982509 0.144497 0.0985456 0.456758 -0.796463 -0.682429 -0.307236 0.168814 -0.34399 0.0182282 0.423707 -0.196323 -0.265334 0.932136 -0.786006 0.820818 -0.633253 0.461688 -0.257251 -0.8684 -0.333618 -0.0814355 0.790033 0.71691 0.0241401 -0.302959 0.319525 -0.744951 -0.130704 -0.680952 -0.433415 0.925344 0.396036 -0.563132 -0.833295 -0.960819 0.531227 0.857375 0.212094 0.402312 0.788654 0.810866 -0.111928 -0.700276 0.694765 -0.677372 0.814767 -0.39191 -0.0418488 -0.207537 -0.78399 0.416486 0.629017 0.861596 -0.381496 -0.209363 0.55249 -0.281459 -0.728014 0.725895 -0.0912699 -0.211548 -0.722547 0.764453 0.122286 0.823365 0.233287 0.221677 -0.148428 0.898609 -0.411966 0.358207 0.836211 -0.622642 -0.551554 -0.185908 0.441197 -0.677754 -0.934869 -0.505783 -0.279397 0.0144517 0.670186 -0.275816 -0.388888 -0.46135 0.0499279 -0.0735385 0.623043 -0.731337 -0.459519 0.846479 0.04124 -0.987099 0.0912333 -0.780463 0.455989 -0.03481 0.993259 -0.483686 1.02742 0.129755 0.219589 -0.456865 0.0663551 -0.319436 -0.240957 -0.1489 0.0952745 0.267837 0.618349 -0.871413 -0.763203 -0.0966817 0.29515 0.990535 -0.672218 0.306496 -0.587929 -0.622096 -0.435958 0.231184 -0.835485 -0.553582 -0.773161 -0.820456 0.886857 0.999406 0.287121 0.741254 0.165325 -0.722907 -0.375061 0.63137 0.530625 -0.778254 -0.749441 0.0225742 0.592992 0.686041 0.256706 0.730218 0.136862 0.971147 -0.344363 0.524415 -0.69376 0.85419 -0.122082 0.690964 -0.885928 0.382666 -0.327453 -0.578235 -0.252602 -0.581521 -0.15335 -0.601002 0.276774 0.363971 -0.946468 -0.585165 -0.486023 0.65337 0.701589 -0.228968 -0.980584 0.447053 -0.340766 0.913197 0.723752 0.443915 -0.830934 0.679277 0.385868 -0.761987 0.59884 -0.744237 0.0980517 -0.868138 -0.494148 0.0985369 0.903264 0.985712 -0.654603 -0.738719 -0.608804 0.12211 -0.153823 0.243366 0.993762 -0.498104 0.73373 0.574085 -0.0745725 -0.38635 0.846735 0.152534 0.208249 0.122605 -0.763221 -0.67291 0.087646 0.046496 0.562584 -0.639017 0.264688 0.180541 0.557991 -0.0409039 0.0367052 -0.0414994 -0.769795 0.46761 0.129389 0.837672 -0.21581 0.857081 -0.49382 -0.109093 0.796683 -0.337846 -0.0548047 0.416166 -0.130569 -0.941858 -0.69715 0.97175 0.306928 -0.167929 0.776386 0.967442 0.396702 0.396792 -0.465755 -0.775817 -0.225909 -0.777218 0.439961 -0.534219 0.0970778 0.451257 -0.486934 0.614821 0.173583 -0.437823 0.471542 -0.443587 0.695772 -0.427759 0.596467 -0.109618 -0.199451 0.836369 0.0158478 0.94356 -0.376981 0.110663 0.704344 0.343198 0.782769 -0.0186282 -0.750293 -0.655848 0.0307654 -0.469249 -1.00294 0.41139 -0.409431 0.186474 0.00618448 0.958561 0.773615 -0.806879 0.0491044 -0.971435 0.802354 0.277346 -0.353335 0.575681 0.380529 -0.943135 0.169193 0.0991329 -0.435188 0.355234 0.272935 0.695354 -0.408227 -0.925968 -0.0831488 -0.0989883 -0.551192 -0.845894 0.363985 -0.393861 -0.220654 0.7071 -0.329898 -0.882617 0.605691 -0.557914 -0.0950652 0.0862758 0.453291 0.758836 0.20274 0.0482125 -0.771333 0.869102 -0.583003 -0.857027 -0.280801 -0.611926 0.896928 -0.73095 0.212787 -0.163384 -0.547897 0.880654 -0.0529637 -0.195632 0.193982 -0.952569 -0.66166 -0.601423 -0.919853 0.0228189 -0.172956 -0.0138221 -0.42447 -0.587817 0.723991 -0.583656 -0.818961 0.208168 -0.313416 0.135566 -0.396298 -0.71086 -0.876207 0.980199 -0.320381 0.284784 0.0292201 0.615756 0.123953 0.744991 -0.471667 0.590569 0.896106 -0.994157 -0.370916 0.46713 -0.24855 -0.162649 0.851702 -0.143945 0.116808 0.396161 0.773064 -0.20582 -0.107426 0.292065 -0.453307 -0.0695866 0.950484 0.447643 -0.472575 0.59368 0.985755 -0.806907 -0.382636 -0.722685 0.047997 0.636763 -0.73311 -0.45851 0.894479 -0.736213 0.943687 0.972667 -0.320451 0.0131028 -0.0688971 -0.522568 -0.274012 -0.980895 -0.0627155 -0.957997 0.4153 0.51259 -0.0985971 0.907182 0.862108 -0.467032 0.164119 0.0568811 0.436037 -0.210839 -0.384731 -0.330979 -0.0428177 0.889791 -0.460716 0.17343 0.839876 -0.80604 0.0394929 0.94371 0.775462 -0.19022 -0.65636 0.827959 -0.975707 0.75811 0.76989 -0.450105 0.426739 0.274268 0.182437 0.838876 0.973046 -0.0649877 0.983095 0.36005 -0.221699 -0.246109 -0.682171 0.223971 0.791305 0.947108 0.210338 -0.594519 -0.412039 0.648291 -0.781839 0.984531 -0.202224 0.208839 -0.587561 0.144045 0.684927 0.446272 -0.792962 -0.801596 0.211138 -0.0645828 0.666339 -0.212952 -0.769001 0.0523898 0.648846 0.294723 0.750231 -0.0127645 0.41542 -0.471532 -1.01628 0.370056 -0.685596 0.328426 -0.460322 0.634878 0.0142981 -0.190259 -0.492431 -0.848114 0.523625 0.615264 -0.90051 0.0293283 -0.948363 0.66006 0.50135 0.00211108 0.594821 0.50885 0.615987 0.0174663 0.576962 -0.583832 0.416759 -0.38169 0.075237 -0.020884 0.939727 -0.0338935 -0.764609 0.281647 0.0695973 -0.333241 -0.139845 -0.872143 -0.224806 -0.947594 0.332294 -0.495702 0.764763 0.152867 0.959777 -0.810734 0.881575 0.755054 -0.82099 0.358187 -0.781088 0.114175 -0.949485 0.364206 -0.468327 -0.695418 0.232389 0.256154 -0.413166 -0.919021 0.70184 -0.264573 0.785834 0.808998 0.761947 0.333659 -0.75202 0.539754 0.360209 -0.86587 -0.919736 0.519517 -0.880673 -0.666454 -0.634803 0.150268 -0.466873 0.126409 -0.654168 0.291069 0.559231 -0.658669 0.774073 -0.775082 -0.198989 -0.16586 0.436469 -0.16369 -0.330722 0.2655 -0.730524 -0.709451 0.230638 0.437292 -0.696497 -0.704977 -0.858515 0.169982 0.243812 0.953185 -0.192419 0.0144304 0.931481 -0.967378 0.794148 0.410494 0.353891 0.420245 0.813785 0.16852 0.718394 0.33186 0.506993 0.0472698 0.187775 0.451205 -0.569687 -0.779564 0.941417 -0.412081 -0.335395 -0.335057 0.982274 0.00700451 0.134922 0.646901 -0.0685751 0.107822 -0.985168 0.406171 -0.367656 -0.459533 0.682044 0.722075 0.861632 0.386557 0.363219 0.204977 -0.151347 -0.918684 0.91136 -0.693795 -0.743202 0.353156 0.946226 -0.624134 -0.231258 0.047759 0.36997 0.182025 0.593805 0.34132 -0.425642 -0.841731 -0.548875 -0.241798 -0.677908 0.0489212 -0.009064 -0.336421 -0.450706 -0.0355254 -0.923791 -0.230559 -0.951934 -0.432973 0.517391 0.274646 -0.571572 0.49513 -0.915392 -0.875034 -0.31916 -0.91235 -0.473437 -0.164061 0.372776 0.363417 0.650807 0.863521 0.448164 -0.318888 -0.944578 -0.389752 -0.779962 -0.3549 0.37492 -0.134861 0.272622 -0.335247 0.897336 0.213834 0.49747 0.113974 -0.663217 -0.0377553 0.566243 0.168544 -0.404582 0.162103 0.159446 -0.615334 0.289163 0.238868 0.255409 0.0455031 -0.153417 -0.142247 -0.205359 0.431562 -0.897153 -0.942625 -0.0356151 0.0290231 0.750969 -0.980041 0.36082 0.53795 0.477218 -0.960265 -0.165258 0.129612 -0.178381 0.167211 0.411603 0.197729 -0.805414 0.398907 -0.581286 -0.19248 -0.743767 -0.815241 -0.785455 0.760186 0.975768 -0.498459 0.217811 0.753533 -0.60332 0.804926 -0.699698 0.454146 -0.327006 -0.826472 0.605823 -0.708719 0.935834 -0.0430619 0.856893 -0.213118 0.557046 -0.758881 0.211986 -0.771071 0.363229 -0.5678 0.736969 0.517131 -0.617895 -0.689838 -0.447554 0.962157 0.656728 -0.202795 0.717399 0.888058 0.714652 -0.176183 0.915708 0.822016 -0.76397 -0.44145 -0.994812 -0.902462 -0.501859 -0.665878 0.493625 0.681899 -0.845295 -0.414919 1.00332 -0.965621 -0.117069 0.0572189 -0.232591 -0.186427 -0.463274 -0.266069 -0.714297 0.224276 -0.745902 -0.380081 0.117164 0.936399 -0.741752 -0.17423 0.913205 0.112705 -0.364422 -0.817914 0.761087 0.686913 -0.0302403 0.772596 -0.103097 0.495877 0.189555 -0.349262 -0.167306 0.109335 0.207955 0.00476912 0.974729 0.259238 -0.961387 0.217645 0.76389 -0.488886 0.807007 -0.946206 0.554307 0.304361 0.352336 -0.788934 -0.0306101 -0.337626 -0.235389 -0.33967 -0.86555 0.935735 0.730437 -0.901989 -0.307113 -0.941592 0.0245335 -0.252265 0.641778 -0.840459 0.675019 -0.227752 0.13661 -0.472452 0.679729 -0.138156 -0.772659 0.443691 -0.60875 0.0228104 0.797072 0.0853603 -0.475631 -0.0258492 -0.629872 0.808405 -0.971963 -0.472462 -0.723107 -0.866297 0.688821 0.250393 -0.969271 0.938369 -0.172576 0.673601 0.956826 0.678226 -0.419671 0.290059 0.200288 0.656993 0.700492 0.896991 0.183778 0.923129 -1.00866 0.414933 0.602939 -0.255333 -0.797906 -0.637928 0.783197 -0.680288 0.801489 -0.392015 0.856329 0.843818 0.435863 -0.431345 -0.47381 -0.585983 0.373596 -0.874879 0.568044 0.736363 -0.488866 0.521703 -0.911348 0.346805 0.664159 0.787736 -0.174213 -0.373974 0.85097 -0.145118 0.175548 0.463825 -0.570116 -0.524949 0.207434 -0.699995 -0.528195 -0.35574 0.918587 -0.943809 -0.436553 -0.362152 0.45364 0.582814 0.584509 -0.0742164 -0.493121 0.622292 0.942883 0.332277 -0.0432332 -0.0580505 -0.82657 0.843922 -0.0340211 -1.00116 -0.822451 0.280924 -0.800881 -0.168126 0.542344 0.995911 -0.464778 0.251089 -0.00245044 -0.629166 -0.548978 -0.68374 0.0204113 -0.144333 0.732713 -0.780373 0.594467 0.328508 -0.0764252 -0.708244 0.215357 0.680052 -0.714817 0.895377 0.344797 0.510386 -0.145673 -0.535871 -0.829125 -0.524598 0.829055 -0.424726 0.732414 0.235267 0.16542 -0.0170897 -0.0724232 0.208642 -0.983387 0.493877 0.552413 -0.971982 0.0858685 -0.877787 -0.439661 0.582178 -0.888791 -0.17003 0.419316 0.438646 -0.697156 -0.787117 0.96462 -0.42402 0.364257 0.577603 0.384213 0.916054 -0.8576 -0.993564 0.452772 -0.318339 0.10428 -0.938318 0.812093 0.775242 0.96778 -0.0774631 0.0268789 0.981591 0.728641 -0.462491 0.829468 -0.0298659 0.200514 -0.973368 -0.521607 -0.118223 0.118082 0.841929 -0.57085 -0.582973 -0.961777 -0.209824 -0.720732 -0.112486 -0.574916 -0.118605 0.579516 -0.758049 0.994038 -0.52271 0.942663 0.406721 -0.365756 0.54577 0.705107 0.555843 0.169928 0.587095 0.699984 0.380814 0.0339793 -0.378653 0.208157 0.144456 0.0344575 0.393061 0.0647883 -0.500717 -0.686088 0.450213 -0.141087 -0.8035 -0.225838 -0.639547 0.300699 0.361675 0.499864 -0.780564 0.370766 -0.137761 0.955799 0.818719 -0.683101 0.0933303 0.544294 -0.816333 -0.494314 0.804994 0.57854 -0.142657 0.481587 0.89332 -0.446365 -0.850525 0.0652085 0.290757 0.444901 -0.178397 0.461524 0.657483 -0.575456 0.751885 -0.374248 0.210974 0.505478 -0.541246 0.126621 -0.573097 0.963498 -0.983781 0.950854 -0.356133 0.854054 0.0462688 -0.924286 0.796258 -0.72652 0.11542 0.0883762 -0.783578 -0.703056 0.753029 0.911529 0.849858 -0.508459 0.704837 -0.49774 -0.513114 0.275373 0.725026 0.494797 0.125034 0.53972 0.00729392 0.586046 -0.443427 0.565606 0.621817 -0.412579 -0.990685 -0.517451 -0.214855 -0.645567 0.0911344 0.860813 -0.798013 0.461896 -0.022882 -0.518072 0.616593 -0.810478 0.247096 -0.0352353 -0.538131 0.227205 -0.144428 0.999456 0.686831 -0.599963 -0.514512 0.882382 -0.249367 0.913511 0.287997 0.0676877 0.498937 0.350007 0.841924 -0.406652 0.494214 0.408672 0.670312 0.0629293 0.0435232 0.310044 -0.936225 -0.671058 -0.621887 0.643158 0.943397 0.363714 0.0562992 -0.641456 0.744198 0.222103 -0.995422 -0.534288 -0.769036 0.782708 -0.255593 0.531358 0.588007 -0.128157 0.544321 -0.770328 -0.93379 0.737516 0.603088 0.400258 0.31464 -0.478921 -0.339617 0.886821 -0.695072 -0.11251 0.425746 0.612575 -0.643943 -0.827024 0.823535 -0.45712 0.31066 0.192507 -0.230895 0.922666 0.184179 0.229041 -0.34434 0.542711 -0.170379 0.783295 0.516435 -0.563741 -0.348573 -0.823729 -0.142063 -0.19033 -0.010781 0.546954 0.651351 -0.151616 0.578002 0.568993 -0.0188312 0.604567 -0.16801 -0.268821 -0.367246 0.589446 -0.0577204 -0.627251 0.767394 -0.0860214 0.382366 0.706046 -0.759498 0.0496846 0.600546 0.387046 0.670254 0.15456 0.0838375 0.290813 -0.249962 0.492145 0.0994073 -0.987767 -0.62369 -0.299607 0.0428108 0.891751 -0.674634 0.0499804 -0.821339 -0.612942 0.153897 -0.607728 0.182522 -0.61472 0.383008 0.572133 0.599902 -0.621937 -0.45619 -0.696126 0.984311 0.883409 -0.0223328 0.719449 0.606923 -0.548007 0.406869 -0.188396 -0.0872979 -0.204277 0.102028 -0.202019 -0.0834507 0.0143471 0.165627 -0.911349 -0.0558181 0.368321 0.914015 -0.460911 -0.260485 0.760082 0.0764078 0.301614 0.249062 0.136021 -0.491111 0.624614 -0.430768 0.873565 0.52694 0.0980413 -0.45084 -0.93573 -0.44155 0.710815 -0.682306 0.371937 0.153579 -0.207638 0.918373 -0.684252 0.605668 -0.542566 -0.360069 0.897678 -0.162329 0.459834 -0.279831 0.940973 0.166845 -0.795587 0.847957 -0.0555742 0.686554 -0.972611 -0.690105 0.510778 -0.126034 0.650343 -0.287491 -0.0987271 0.141567 -0.552975 0.956763 0.779072 -0.471893 -0.451558 0.446296 0.567299 0.486337 -0.735953 0.127714 -0.118398 -0.0648041 -0.884782 0.343148 0.945591 -0.426191 -0.407147 -0.758599 -0.0724815 -0.273066 -0.504265 -0.54167 0.420993 -0.0422002 0.115968 0.260744 0.369271 0.381718 0.296917 0.316417 0.719188 -0.153996 -0.684785 -0.223485 -0.958888 -0.296928 0.702434 0.266176 -0.374043 0.818683 0.148017 0.25766 0.148809 -0.772267 0.516343 -0.235511 -0.369732 -0.654653 0.831615 -0.234801 -0.10397 0.313774 0.725468 -0.864624 0.00865978 0.932915 0.899692 -0.490141 0.846823 0.0437245 -0.842141 -0.532742 0.0868709 0.315808 0.573211 0.0708879 0.0497481 -0.222111 -0.596696 -0.322147 -0.384075 -0.177648 -0.751885 -0.466292 -0.106357 -0.552049 -0.971419 0.10101 0.741707 0.245056 -0.615491 0.157512 0.748357 0.726113 -0.970842 -0.00199428 0.827109 -0.268261 -0.421968 -0.867513 0.528737 -0.0182026 0.521105 -0.418475 0.864829 -0.908104 0.815678 -0.472001 -0.584765 -0.394879 0.666066 0.0553911 0.779595 -0.894772 0.107553 -0.272677 0.249035 -0.32032 -0.112816 0.149447 0.4007 0.446391 -0.714973 0.844088 -0.295193 -0.183886 0.349639 0.772957 -0.620535 -0.436236 -0.900778 0.626877 -0.919173 -0.778947 -0.468968 -0.219493 0.372478 0.889706 0.465011 -0.662404 -0.0146184 -0.939268 -0.667714 -0.636464 -0.285617 -0.630044 -0.889744 0.194151 -0.326436 -0.903513 0.15493 -0.724005 -0.978948 -0.837455 -0.61403 -0.140678 -0.673136 0.50414 0.404232 0.636012 0.323913 0.605191 -0.736137 -0.836421 -0.324503 0.978393 -0.860897 -0.30607 0.182897 -0.538133 0.76928 0.268532 -0.0578784 0.0902484 0.0596637 0.132969 -0.665822 0.391625 -0.539165 -0.15197 -0.0770912 0.890981 0.680825 -0.587784 -0.625343 0.672914 -0.707637 0.682531 -0.609485 -0.240028 0.787713 -0.552538 0.785333 0.182714 0.67101 0.721488 0.501572 0.117222 -0.477401 0.189184 -0.37785 -0.218055 0.655873 0.785882 0.706351 -0.682669 -0.544176 0.859004 0.993774 -0.842586 -0.839595 0.0746788 0.346355 0.135594 -0.987426 0.474715 0.327433 -0.503464 0.47441 -0.915952 0.62859 0.865474 -0.430036 0.13187 0.657216 0.736198 -0.329875 -0.0518509 -0.90405 -0.958007 0.0306101 0.598987 -0.752068 0.370891 0.39671 -0.678073 0.979607 -0.611997 0.986999 -0.173776 -0.927072 -0.976496 0.168371 0.513474 0.798517 -0.995361 -0.864925 -0.300882 0.534471 -0.734672 -0.0959197 0.867916 0.214637 -0.174169 -0.0609455 0.0550859 -0.547473 -0.313521 -0.283674 0.39902 0.131059 0.30444 0.544571 -0.0654476 -0.713016 0.2266 0.963819 -0.308047 -0.939555 0.366413 0.946393 0.0864659 -0.414869 0.693272 0.473668 0.940788 -0.350383 -0.41319 -0.612171 0.724235 0.765435 0.685354 -0.787652 0.519822 -0.31529 0.669406 0.0532201 0.558907 -0.946397 0.55723 0.941919 0.434447 -0.943591 0.138592 0.992266 -0.94511 -0.261088 -0.177753 -0.646185 -0.712851 -0.88914 0.15625 0.107375 -0.21139 0.540025 0.611621 -0.762444 0.367595 0.363201 -0.00802637 -0.0587481 -0.461271 -0.446143 0.655203 0.203572 -0.871736 0.255114 0.192109 -0.0393418 -0.0401406 -0.966253 -0.756387 0.326184 -0.272786 -0.67398 0.481133 -0.280687 -0.973578 -0.360934 0.467097 0.154853 0.871688 -0.590877 0.473983 -0.18479 -0.581774 -0.971068 0.0377514 -0.81341 -0.880457 0.463981 0.141158 -0.468768 0.441944 0.495926 0.886749 0.243223 -0.891969 -0.727112 -0.912609 0.32837 0.88532 -0.0603661 0.314184 0.30292 -0.766873 0.531064 -0.760933 -0.1555 -0.625569 -0.852203 0.280826 -0.4785 0.520249 0.290445 0.859554 -0.0227298 -0.242801 -0.810365 -0.954758 0.620104 0.847537 -0.43945 -0.210325 -0.539575 0.0586223 0.256511 -0.100193 0.236739 0.150899 0.0119899 -0.288564 0.316133 0.31526 -0.454402 -0.653239 1.00718 -0.731792 0.267373 -0.00238674 0.8811 -0.162694 -0.555467 0.202063 -0.828206 -0.400014 0.130381 0.659298 -0.925865 -0.0763949 0.260375 0.52027 -0.654263 0.449797 -0.765253 0.410152 -0.469209 -0.703652 0.550507 -0.934527 0.758267 -0.666787 -0.0490898 0.347172 -0.353608 -0.565618 0.477651 0.5404 0.005768 -0.588122 0.230262 0.249855 -0.986799 0.527259 0.790056 -0.0274132 0.378779 0.80358 -0.612804 -0.987055 0.0947932 -0.708924 0.427312 0.135131 0.839766 0.269974 -0.703543 -0.526552 0.259583 -0.581355 0.158663 0.462643 -0.24821 0.914807 0.501987 -0.973629 0.624744 -0.174902 0.598743 -0.93323 0.557851 0.622455 0.172151 -0.74699 0.937784 -0.160216 0.503626 0.146023 -0.0392008 0.0988253 0.564223 0.922182 0.681855 -0.415347 -0.930358 0.385043 -0.00884624 -0.195019 -0.5374 0.0831335 0.569213 -0.0538266 0.917006 -0.904408 0.868404 0.594775 -0.731376 -0.320497 0.180171 -0.587448 0.774396 0.820897 -0.59073 -0.880771 -0.0994042 0.0805962 -0.119317 0.446232 0.964572 0.107594 0.33211 0.793459 0.160793 -0.937474 0.888081 0.835253 0.607669 0.694642 -0.542493 0.000805601 -0.416264 -0.768163 -0.00631733 0.749687 -0.245643 0.742393 -0.682405 -0.642444 -0.157018 -0.0314886 -0.268058 0.366235 0.907835 0.546726 0.879004 0.488321 -0.672729 -0.324295 -0.283086 -0.634676 -0.520006 -0.113431 -0.647605 -0.486089 0.966638 0.23247 -0.385306 -0.535334 0.480947 -0.90922 -0.761467 -0.983459 -0.445906 -0.275644 0.674167 0.0265683 0.638553 -0.0196918 -0.170218 -0.529185 -0.100112 -0.552689 -0.648643 -0.716143 0.0824017 -0.230561 0.765274 -0.605002 0.159268 0.531329 0.730657 -0.0363986 0.830338 0.774929 0.763166 0.256022 -0.426386 0.669946 -0.00766484 0.058504 -0.813959 0.551742 -0.964942 0.386866 -0.654985 0.166356 -0.722031 0.272814 0.638962 0.289785 0.805539 0.606778 -0.816205 -0.684271 -0.664537 0.681545 0.0911507 0.749894 0.593371 0.239035 0.739034 -0.500996 0.0675179 -0.108335 0.363008 0.344673 -0.529384 0.20072 0.759026 0.642627 -0.093156 -0.389107 0.312923 0.83152 0.0719026 0.94703 1.01777 1.03806 -0.933874 0.266892 -0.271211 -0.381632 -0.24552 -0.61977 -0.623425 0.780049 -0.90516 -0.0037562 0.318801 0.821744 -0.612584 0.389573 0.88088 0.661114 -0.919248 -0.916868 0.766411 -0.722648 0.167357 -0.0829969 -0.659137 0.169309 -0.240577 -0.60122 0.505559 0.51053 -0.895218 0.733684 0.479108 0.330588 -0.361997 -0.943104 -0.757833 -0.618832 0.578865 0.316887 0.424249 0.704442 0.1381 0.517453 0.779855 -0.160962 -0.332926 0.675649 0.790094 0.237963 -0.102748 -0.192936 -0.285055 -1.01341 -0.950552 -0.746243 0.193717 -0.908874 0.469975 -1.04055 -0.608683 0.893565 0.475837 -0.663688 0.21771 0.546224 -0.24959 0.264915 -0.740991 -0.952197 -0.120903 0.743824 0.192738 -0.0836897 0.82226 0.0939055 0.801813 0.649396 -0.413037 -0.824652 0.620188 0.161778 -0.867418 0.62482 -0.0358793 -0.295863 -0.112258 -0.575602 0.282494 -0.908425 -0.338452 0.381538 -0.0188858 0.444861 0.323721 -0.424887 0.197829 -0.899003 -0.127394 -0.640766 -0.925198 -0.528158 0.452192 -0.3455 0.74987 0.973951 -0.0741159 0.73156 0.641347 0.826519 0.821783 -0.683586 0.619572 0.199505 0.0251477 0.507717 -0.61045 0.588869 0.0749795 -1.02477 0.722066 -0.232603 -0.48523 -0.160332 -0.111381 -0.18205 -0.2741 -0.748807 0.702426 -0.11463 -0.217322 0.604419 -0.881588 0.0851455 0.335607 -0.875136 0.0834704 0.234727 0.809607 0.82602 -0.351432 0.790303 0.659975 -0.123451 -0.843086 -0.0141465 0.328237 0.600687 0.835231 -0.520096 0.55734 -0.292258 0.409161 0.0971815 0.358916 -0.31699 0.0262971 -0.967028 -0.00485244 -0.0348827 0.147191 0.350364 -0.558384 0.29165 0.763819 -0.834699 -0.775353 0.649368 0.288106 -0.119604 -0.562352 -0.884692 0.349938 -0.169621 -0.0796412 0.838779 0.54186 0.901316 0.428459 0.454821 0.158702 0.875397 -0.462062 0.601392 0.555099 -0.609453 -0.321635 0.92645 0.398297 0.687431 -0.329459 0.370246 0.920393 -0.190948 -0.516104 -0.869278 0.47707 -0.23549 0.33312 1.01346 -0.377743 -0.0185668 0.317031 0.515889 0.0607557 -0.128376 0.934375 -0.462466 -0.862823 0.000896593 -0.965722 -0.158843 0.454919 0.462881 -0.715812 0.229469 0.358562 0.506358 -0.817706 0.696093 0.024504 0.244896 0.935645 0.503092 -0.515014 -0.661459 1.03833 0.0817069 -0.206142 -0.200701 0.478707 0.2076 0.0796062 0.167875 0.392621 0.342937 -0.601187 -0.206031 -0.338676 0.699454 -0.425877 0.486682 -0.225135 0.974548 -0.235206 0.483471 -0.705304 0.299824 -0.909187 0.185105 -0.767681 0.482567 0.981895 -0.0551549 -0.533767 -0.375127 0.305894 -0.180015 -0.206469 0.332016 -0.801708 -0.0874484 -0.0157852 -0.269713 0.178682 0.234225 -0.58542 0.316374 0.0506344 -0.663259 -0.350749 0.293252 0.338664 -0.894894 0.593124 0.284548 -0.782698 0.0672364 0.733097 -0.11783 0.055375 0.914965 0.682706 0.000479175 0.327325 0.780929 0.497646 0.322934 -0.0198877 0.0544113 0.142373 -0.305394 0.550052 -0.235818 0.85354 0.297489 0.21543 -0.420515 -0.464888 0.320658 0.619251 0.920835 -0.0649739 -0.396369 0.0617764 0.510434 0.0793663 0.545233 0.992774 -0.875734 0.284112 -0.697294 0.612092 -0.966122 0.998051 -0.617222 0.370696 0.752551 -0.985127 0.710879 -0.744537 0.606474 0.915171 0.00460829 0.46202 -0.392682 0.535813 -0.0940275 0.581469 -0.561693 -0.505905 0.618497 0.856213 -0.154593 -0.844147 -0.762154 -0.576793 -0.844856 -0.634474 0.827883 0.350071 0.405807 0.216906 0.281011 0.255509 0.744493 0.271997 -0.909594 0.371184 0.529588 -0.633839 -0.0404981 0.779412 -0.207556 -0.481979 -0.500961 0.726249 0.603137 0.0892666 -0.0954924 -0.234413 0.878048 0.604968 -0.222571 -0.437708 0.213199 -0.494677 -0.884539 -0.827519 -0.7022 0.151797 0.540025 -0.394452 -0.525803 0.402203 -0.17235 0.487403 0.00289926 -0.937925 -0.19834 0.631275 -0.401837 -0.471603 -0.668691 -0.204443 -0.0624104 0.734611 0.19303 0.713919 0.129734 0.945982 0.309366 0.774163 0.741203 0.676504 0.598376 0.937925 0.739616 0.466231 0.112827 -0.971801 0.711539 -0.612049 0.135472 0.694449 0.217872 0.233131 0.871151 0.584399 0.526902 0.560717 0.549913 0.28605 -0.960204 0.672292 -0.247414 0.601184 0.719413 0.574999 0.77105 0.713675 0.835336 0.995191 0.816422 -0.185461 0.338908 0.507614 0.888668 -0.252907 0.177953 -0.165685 -0.884945 0.233253 -0.132786 -0.610157 0.379376 -0.754753 0.623768 -0.878475 -0.956297 0.0838954 0.382122 0.715018 0.583605 -0.273537 -0.999529 -0.774663 0.943678 0.00612006 0.970242 0.194932 -0.571572 0.186566 -0.0537264 -0.668859 -0.0459304 0.499854 0.395872 0.774763 0.420209 -0.819819 0.701651 -0.924558 -0.888668 0.616504 -0.992126 0.87817 -0.160253 -0.880673 0.141881 -0.572863 0.703238 -0.0917882 0.907448 -0.0754924 0.248728 -0.137163 0.069156 0.816781 -0.136335 -0.383089 0.360773 -0.913825 0.20819 -0.461802 0.767205 0.542035 0.450608 -0.85699 0.475204 -0.703665 0.242286 0.589343 0.754448 -0.641835 -0.903806 -0.306009 0.0851772 0.497971 -0.918455 -0.878184 0.856654 -0.604319 -0.392611 -0.728955 0.933576 0.155599 0.125689 -0.535521 0.486315 -0.712108 -0.444547 0.873937 -0.86747 -0.947993 0.201839 -0.0211322 0.166686 0.535524 -0.902408 -0.130506 0.698355 0.200232 0.466781 0.138951 0.342692 -0.836604 0.126866 0.794391 -0.387098 -0.791781 -0.268732 0.861605 0.398556 0.578702 -0.419515 -0.775683 -0.0945436 -0.27092 -0.118356 0.0974651 0.0298474 -0.228188 -0.89744 0.995092 0.0712849 0.200256 -0.443175 -0.482081 0.562303 0.520615 0.749504 0.617298 -0.247902 -0.0712607 0.267849 0.806703 -0.962647 0.285879 -0.682667 -0.946651 0.666901 0.267715 0.471202 0.785668 0.0197653 -0.129051 0.517067 0.59387 -0.240472 -0.788705 0.195058 0.135502 0.0319112 0.684541 -0.384113 -0.989167 0.525319 0.956542 -0.491073 -0.991494 -0.0455606 -0.971953 0.321141 -0.864342 0.882351 -0.770422 -0.123129 0.383436 -0.0352953 -0.178217 -0.143119 -0.574004 0.87749 -0.727639 -0.928119 0.135857 0.479908 -0.527002 0.385507 0.0467303 1.00935 -0.520883 0.796721 0.757189 -0.578517 -0.178625 0.358074 -0.187053 0.43333 0.0629899 0.334131 0.0900169 -0.113363 -0.108246 0.795782 1.00039 -0.0893683 -0.813664 0.601465 -0.544207 -0.190124 0.197315 -1.0148 0.691059 0.485549 0.153436 0.378007 0.980563 0.0773586 0.78693 -0.903597 0.0100619 0.75271 -0.187658 0.587756 0.0126767 0.677765 0.250476 0.583472 0.0556131 0.264566 0.571593 -0.599668 -0.744222 -0.490576 0.287567 -0.796641 -0.450583 -0.817839 -0.852566 0.789678 -0.554695 0.845244 -0.827174 0.0551115 -0.539224 0.22451 -0.973733 0.158755 0.114563 0.711491 0.704573 0.83166 0.825266 0.672367 -0.27297 -0.574839 0.69586 -0.163031 0.372785 -0.332458 0.267492 -0.904249 -0.152081 -0.940366 -0.307062 -0.586743 0.621661 0.628678 -0.022657 -0.351415 0.858198 -0.0752142 0.655394 0.941165 -0.246656 0.343209 0.0162195 -0.613329 0.47317 -0.546373 -0.701635 -0.120498 -0.667875 -0.321211 0.558854 0.984535 -0.903174 0.311114 0.484243 0.49559 -0.155653 0.913101 0.621738 0.448028 -0.472997 0.799316 -0.446604 -0.0713854 0.760987 0.341645 -0.598699 0.897737 0.310748 0.406191 -0.0227726 -0.652638 0.276101 -0.654469 0.655324 -0.0835565 -0.6779 0.228091 1.00116 0.604457 0.125663 -0.117823 -0.862071 0.425046 -0.000421532 -0.857138 -0.294128 -0.220727 -0.304208 -0.144515 -0.650564 0.595391 -0.313943 -0.738049 -0.178298 0.912366 -0.214419 -0.533186 0.453883 0.809565 -0.260231 -0.177709 -0.631947 -0.888376 0.454673 0.543616 -0.6201 0.266212 0.741664 -0.414184 0.516114 -0.593647 -0.256106 -0.420221 0.209343 0.360682 -1.0077 -0.882043 -0.260522 0.489663 0.305526 0.0841567 0.423998 0.313335 0.621702 -0.0685571 0.0353013 -0.463185 -0.0178616 -0.697867 -0.135105 0.136265 -0.136687 0.792599 -0.516997 0.732405 -0.718118 -0.47769 -0.0105438 -0.617191 0.0895724 -0.449828 -0.0540911 0.50145 0.34209 -0.761571 -0.60214 0.719086 0.852451 0.395065 0.699414 0.946873 -0.684574 -0.897921 -0.588518 0.692552 0.812053 -0.539781 0.818903 0.876583 -0.823826 -0.760324 0.069171 0.0537438 -0.372937 1.00359 -0.239134 0.213374 0.958193 -0.18142 0.137222 0.925418 -0.737395 -0.559462 0.255749 -0.445887 -0.745863 -0.791412 0.075747 0.0278321 0.707388 0.110207 -0.704096 0.820851 -0.459334 0.541368 -0.0406812 -0.246986 -0.694014 -0.380861 -0.492608 -0.591905 0.392668 0.696084 -0.718686 0.252418 0.199981 -0.865683 0.513566 -0.732228 -0.79726 -0.814427 -0.746133 0.950809 0.263111 -0.537759 -0.756626 -0.0511742 -0.780236 -0.110011 -0.752376 -0.860779 -0.155126 0.521104 -0.661061 -0.331095 -0.641804 0.167058 -0.572403 -0.101779 -0.656425 -0.81057 0.214344 -0.869525 -0.100748 -0.897573 -0.430988 -0.916569 -0.787606 -0.994477 0.790419 -0.998786 0.868053 -0.598258 0.728953 0.307717 -0.450514 0.888813 -0.684432 0.339706 0.118992 -0.198218 -0.00405896 -0.225196 0.0870109 1.00238 -0.671745 0.454187 0.345739 -0.246612 0.957887 0.0538447 0.388826 -0.0448867 -0.103304 -0.320968 -0.625574 -0.00699832 0.788794 -0.588086 0.570928 -0.423425 0.672245 0.302975 0.215294 0.171479 -0.536933 0.0804175 -0.248512 0.131321 -0.0525224 -0.763483 -0.658804 -0.457253 -0.916495 0.0838681 -0.52528 -0.044525 0.564768 -0.335116 -0.684925 -0.923425 -0.487671 -0.230218 0.33359 0.852348 0.345635 0.268136 -0.117153 -0.885577 0.75615 0.715658 0.408642 0.626218 0.690148 -0.645135 0.765374 -0.568163 0.453413 0.19546 -0.0631015 0.63171 -0.703409 0.58678 -0.485933 -0.24418 -0.89493 0.738559 0.290696 0.759903 -0.860503 -0.614777 0.480393 0.0771832 -0.0518079 -0.747346 -0.523212 -0.037327 0.217794 -0.376423 -0.433895 -0.0381621 0.811595 0.928146 -0.740715 -0.773675 0.486801 0.106653 -0.614484 -0.900519 0.375996 -0.973268 -0.550915 0.901258 0.364779 -0.0975289 0.536949 -0.912229 0.419469 -1.00053 -0.785661 0.00314707 0.0921046 -0.601293 -0.526016 0.792746 0.876036 -0.945391 0.140413 0.167157 0.803085 0.0271036 0.0874355 0.350322 0.348613 0.644149 -0.0678298 -0.598506 0.388017 -0.00992524 0.249556 -0.817975 -0.232082 -0.471323 -0.103314 0.477009 0.903698 0.220692 -0.364449 0.335954 -0.687333 0.808154 -0.713084 -0.735653 -0.884557 0.793637 0.969611 -0.858528 0.677358 0.471541 -0.786004 -0.363811 0.365032 -0.640375 0.331053 0.0505933 0.47195 0.980063 -0.437673 0.276503 -0.436236 0.00909986 0.820976 -0.297203 0.905574 -0.826486 -0.766819 -0.011655 -0.411893 0.272523 -0.574115 0.313258 -0.223347 0.479766 -0.285632 -0.831491 0.812983 0.435224 -0.817499 -0.742424 -0.396161 -0.716852 -0.207075 -0.48654 -0.0835684 -0.957337 0.512997 0.92317 0.126791 -0.382511 -0.436513 -0.0157107 -0.0310703 0.715125 -0.107104 0.807891 -0.0150746 0.0948399 -0.233395 -0.850416 -0.159481 0.223059 -0.240313 -0.0771881 -0.320719 -0.976806 0.134434 -0.578356 0.548204 0.652089 -0.454817 -0.714227 -0.298315 -0.152421 -0.698152 0.0212278 -0.705298 0.0693285 0.150777 0.856514 0.0473323 0.810516 -0.261009 -0.163402 0.453088 0.287463 -0.393507 0.688009 0.948283 0.911827 0.0633548 0.702632 -0.105808 -0.147923 -0.182897 0.0963469 0.664418 -0.0431227 0.44792 0.794183 0.522803 -0.642585 0.819965 -0.560759 0.830204 -0.9177 -0.52332 0.438477 -0.846757 -0.993564 0.121952 -0.109641 0.838251 -0.613679 0.134281 0.0857765 0.570474 0.387677 -0.649831 -0.429914 -0.452132 0.822016 -0.98291 0.46025 0.802423 0.490646 0.0936003 -0.152989 0.203284 -0.626331 0.878414 -0.883728 -0.255514 0.0273431 -0.917984 -0.00415052 0.665435 0.481691 0.385912 -0.867841 0.956983 -0.0453666 0.547131 0.0215766 0.838313 0.695914 -0.879269 0.0904874 0.736564 0.268227 -0.143406 -0.634816 -0.410077 -0.165502 -0.699454 0.435224 -0.962767 0.399579 0.247597 -0.422285 -0.0715659 -0.0386059 -0.717765 0.0360424 -0.30137 -0.281045 -0.707205 0.689138 0.0793176 0.373882 -0.511704 0.969787 0.593127 0.894101 -0.643605 0.240028 0.678457 -0.608936 0.282022 0.185827 0.755058 -0.826899 -0.361553 -0.206153 -0.456404 0.0362865 -0.836543 -0.527219 -0.0484906 -0.143663 0.433181 -0.118123 0.838537 0.545079 -0.753452 0.0289949 0.971349 -0.570888 -0.269588 0.19895 0.486396 0.122942 -0.0154729 0.281289 0.164281 -0.055208 0.0674154 -0.951659 -0.16422 -0.0466628 0.14835 0.958312 0.22953 0.655737 -0.370996 0.0370674 -0.428965 -0.547544 -0.950534 -0.594279 -0.747995 0.895266 -0.399766 0.0185652 -0.12481 -0.219954 0.0216735 -0.833823 0.00531392 0.223954 -0.228132 0.304678 0.874 0.622547 0.155492 0.791253 -0.528062 -0.210059 0.383587 -0.923765 -0.770555 0.125697 0.241006 -0.0911576 0.637331 0.977089 0.236684 -0.877302 -0.861992 0.246673 -0.968633 0.541881 0.524286 -0.74095 -0.997303 0.70997 -0.602913 -0.833821 -0.296414 -0.285615 0.534752 -0.566027 -0.0542314 -0.0697958 0.974975 -0.82635 0.597533 -0.788811 0.882057 -0.162042 0.608174 -0.0279552 0.514573 -0.414854 0.237342 0.775909 -0.44259 0.167823 0.0445815 -0.1257 0.236471 0.830104 0.2111 -0.0170706 0.918408 0.0318816 -0.0106377 0.501789 0.310045 0.469589 -0.57622 0.737968 -0.161901 -0.31016 0.837682 -0.190045 -0.911041 -0.593732 0.997138 -0.895972 0.372178 0.862123 -0.838233 -0.787797 -0.12401 0.197181 0.648865 -0.175189 -0.151963 -0.64895 -0.465531 0.85769 -0.579495 0.0158011 0.818392 -0.294719 -0.840028 -0.436164 -0.0801111 -0.281411 0.0637532 -0.2119 -0.610948 0.123953 0.777312 0.962813 -0.874603 0.526912 0.10671 -0.738317 0.0649017 0.767523 -0.646792 0.750788 0.266132 -0.13366 -0.0953115 0.152233 -0.732795 0.476631 0.292325 -0.720093 -0.448057 0.653805 -0.103069 0.883766 0.0898135 0.414106 -0.506206 -0.461899 0.248785 0.527426 0.707335 -0.45215 0.877216 0.573583 -0.25215 0.464135 -0.523542 0.389095 -0.615054 0.908962 -0.459139 -0.681368 0.855991 0.861745 0.46084 -0.939055 0.0433997 0.146381 -1.01025 0.909558 -0.867834 -0.109467 0.808445 -0.520005 -0.667561 0.816167 0.330742 -0.327687 -0.225234 0.962792 0.481623 0.872846 0.773782 0.410361 0.193335 -0.419879 0.756566 0.869679 0.744443 -0.410727 0.907417 0.874538 0.185412 0.645966 -0.481938 -0.0654683 0.399854 -0.179068 0.238812 -0.920588 -0.345186 -0.0312815 0.0465211 0.348303 0.0680721 -0.601535 -0.00455245 -0.482962 0.898293 -0.202861 -0.679259 0.0699737 0.169256 0.567984 -0.451674 -0.419454 0.84605 -0.452911 -0.675836 -0.0980576 -0.446855 -0.0106149 -0.826759 0.0892947 0.087338 -0.277973 -0.360611 -0.0235403 0.689138 0.756706 0.834038 0.060966 0.12887 -0.630346 0.368612 -0.802256 0.173514 0.23419 0.605124 -1.06846 0.232339 0.051882 -0.708664 0.742758 -0.846098 -0.676508 0.656296 0.167149 -0.984737 -0.652251 0.417692 0.839735 -0.96853 -0.403566 -0.520326 -0.18833 0.199377 0.0541093 0.844366 0.161818 -0.0946189 0.342716 0.835573 0.597069 0.370271 -0.429616 0.867832 0.228931 0.091977 -0.144143 0.860513 -0.241199 0.105688 0.511868 -0.00773237 -0.475925 0.680932 0.165994 0.267488 -0.0631527 0.450007 -0.781049 0.954718 0.295052 0.107395 -0.0660115 -0.658163 -0.590834 0.483201 0.021185 0.453032 -0.914192 0.76079 0.804758 -0.290761 0.459828 -0.502458 0.153506 0.357894 1.00848 1.07314 -0.267244 0.364643 0.0594721 0.505489 -0.342158 -0.453528 0.893075 0.895689 0.720446 -0.534326 0.951599 -0.275796 -0.182043 0.998047 -0.0207817 -0.241963 0.420407 -0.972663 0.686825 -0.00113257 0.731654 -0.742524 0.643898 0.137707 0.54994 -0.0408557 0.148289 -0.200048 -0.861162 0.430588 -0.594534 -0.377896 -0.997519 -0.263319 -0.864711 -0.486248 -0.564153 -0.258867 0.437329 -0.460555 -0.142674 -0.5009 -0.60448 0.419337 0.703782 0.360151 -0.972578 -0.979177 0.186823 -0.748389 -0.219958 -0.949177 0.530802 0.0104576 0.30452 0.934383 -0.732634 -0.177562 -0.471848 -0.00104602 -0.633919 0.710665 -0.491367 -0.743817 -0.963733 0.184256 0.290388 -0.266152 0.145421 -0.342204 0.940904 0.450209 0.420118 0.357946 -0.142745 -0.813813 0.180094 0.320652 -0.0874247 -0.820303 0.533338 -0.376085 -0.773474 0.73946 -0.0794515 0.326087 0.191489 -0.161971 0.637624 0.583422 -0.395539 0.680367 0.884759 0.581204 0.531811 -0.897644 0.699759 -0.782769 0.997803 0.863109 -0.969696 0.0895813 0.578081 -0.464663 -1.01278 0.503154 -0.743569 -0.104191 -0.382426 -0.00343448 0.466806 -0.613737 0.169998 -0.10346 -0.363848 -0.624588 0.609938 -0.250632 0.3089 0.0414197 0.525602 0.37494 -0.416438 -0.927305 0.151341 0.53325 0.751944 0.35243 0.757719 -0.931627 -0.834437 -0.299189 0.0735348 -0.70793 0.825542 0.854333 0.220252 -0.720516 -0.99543 -0.528284 -0.947104 -0.186025 -0.256368 0.905324 -0.340274 0.389216 0.034069 0.356527 -0.751912 -0.285067 -0.0841234 0.513901 0.0785852 -0.67687 0.69472 -0.492693 0.614582 0.890279 -0.0555296 0.311128 -0.272346 0.41116 -1.04014 0.167885 0.364792 -0.503263 0.798126 0.704941 0.40271 0.148745 0.370894 -0.440339 -0.980335 -0.418483 0.0306847 -0.901996 -0.307814 0.420637 -0.135602 0.0113237 0.922727 0.668508 -0.633444 0.356043 0.562154 0.449545 0.693105 -0.589482 0.429951 -0.627741 -0.926762 0.378295 0.204288 0.897113 -0.815659 -0.650224 -0.545613 -0.222142 0.155335 0.786911 -0.642343 -0.711169 -0.665815 -0.715169 -0.616181 -0.909892 -0.923243 -0.693593 0.4232 -0.541124 0.7729 -0.138572 -0.189007 0.946391 0.500129 0.741181 0.915899 -0.824101 -0.503945 -0.702725 0.817649 -0.401604 0.712893 0.0479025 0.209269 0.0107138 0.226922 0.91343 -0.274465 -0.689972 0.627204 -0.399091 -0.805506 -0.477922 -0.0063948 0.582263 0.510361 -0.534715 -0.0835358 -0.944064 0.04441 -0.248672 0.793483 0.436004 0.760871 0.281797 0.344446 0.905083 0.0643634 -0.316478 -0.447125 0.708291 -0.554701 0.230798 0.250339 0.633376 -0.254639 0.432561 -0.451526 0.169323 0.5881 0.634287 0.828182 -0.715384 -0.408246 0.229408 0.874812 0.581704 -0.295736 -0.531887 0.88702 -0.142468 0.428269 -0.0371947 0.168575 -0.689828 -0.494397 0.0771737 -0.661193 0.115933 0.517534 0.463126 -0.665058 0.177659 -0.964493 -0.0434168 0.848498 -0.164718 0.701979 -0.914076 0.467513 -0.834223 0.171545 -0.0433058 0.881345 0.214011 0.100579 -0.687762 0.763673 -0.584933 0.981841 -0.688472 -0.427055 -0.738123 -0.718539 -0.653291 -0.529996 -0.889005 0.532786 -0.792569 -0.869183 -0.309893 0.740634 0.777664 -0.104769 -0.518809 -0.928218 0.770392 0.737724 -0.761773 0.738639 -0.398602 0.811234 -0.877645 -0.602736 0.969582 0.149931 0.764933 0.0435374 -0.792562 0.710937 0.24304 -0.786492 0.850613 0.92318 0.939814 0.221518 -0.150222 -0.316912 -0.403404 -0.794686 0.229539 0.854569 -0.858187 -0.964564 0.374065 0.470443 -0.673757 -0.137852 0.330058 -0.457442 0.527818 -0.711051 0.100689 0.649612 0.277325 0.002706 0.941603 -0.688281 -0.626574 0.584291 0.966713 0.185452 -0.557248 0.226952 -0.410159 -0.738863 0.632417 0.554097 -0.129423 0.0801273 -0.41183 -0.289436 -0.805597 0.807306 -0.0974456 -0.568529 -0.448469 0.616993 -0.493698 0.494247 -0.176272 0.178038 -0.551508 -0.376309 -0.70925 0.377555 -0.0566107 0.526895 0.685863 0.345047 0.547889 0.681937 0.146851 0.839609 0.201981 0.349457 0.408089 0.121358 0.0911588 -0.50383 0.395795 0.179907 0.897702 0.978454 -0.299112 0.638173 -0.484664 -0.191806 -0.815464 0.2152 0.884352 0.882854 0.00631199 0.869372 -0.204052 0.803946 0.418743 0.68894 0.493446 0.343549 0.605565 0.571215 0.858673 -0.882809 0.941527 0.777337 -0.981323 -0.976379 -0.105197 0.403668 -0.830744 0.964904 -0.154088 0.436323 0.783807 0.927244 -0.686758 -0.41612 -0.14774 0.707694 -0.544603 -0.617359 -0.24723 -0.802423 -0.834529 -0.548936 -0.263466 -0.676321 0.621448 -0.61858 -0.351176 0.68395 0.627918 0.963683 0.50737 0.0625324 0.321696 -0.68041 0.349773 0.13596 0.302896 -0.240272 0.914121 -0.316324 -0.746086 0.174596 -0.287088 -0.385784 -0.889706 -0.225318 -0.935179 0.121006 0.843623 -0.00991852 0.645802 -0.720939 -0.0792566 0.34257 -0.878414 0.396222 -0.498215 -0.896786 -0.57384 0.429853 0.437849 -0.452437 -0.754387 0.78338 0.132969 -0.379131 -0.727348 0.793756 -0.668752 -0.174164 0.79279 -0.777512 0.89223 -0.853962 -0.835503 0.0658223 -0.379778 -0.185083 0.756868 -0.0153415 -0.802843 0.756622 -0.0868612 -0.305682 -0.696524 0.464827 -0.525559 0.58507 0.974548 -0.776421 -0.519578 0.927122 -0.752617 -0.629261 -0.448592 0.946425 -0.815511 -0.496833 -0.449176 -0.907937 0.312784 -0.60782 0.0746136 0.815374 -0.435041 -0.554465 -0.65167 0.141405 -0.259687 -0.501136 0.0542245 -0.582292 -0.358523 0.790656 0.719215 -0.550234 0.794733 -0.124973 -0.8764 -0.595691 0.997192 0.370098 0.42918 0.822859 -0.383958 -0.744488 -0.543315 0.955658 0.759952 -0.385478 -0.234174 -0.161745 -0.591602 0.573095 -0.973387 0.270351 0.372905 0.22306 -0.713577 -0.728134 -0.306647 0.68345 -0.0933112 0.123629 -0.374753 0.268593 -0.958068 -0.8858 -0.812189 0.692801 0.210299 0.930791 -0.161654 0.23266 -0.29492 0.334322 -0.573232 0.106737 0.832873 -0.180934 0.50249 -0.30448 -0.678179 -0.623752 0.0344182 -0.526999 -0.374905 -0.0944835 0.77292 -0.255657 0.839282 0.474309 -0.985805 -0.721341 -0.954649 0.328898 0.896298 0.427901 -0.329639 0.81991 0.588573 -0.898296 0.695531 -0.179932 0.108066 -0.403756 -0.410602 -0.739822 -0.140902 0.831392 -0.726348 0.969862 0.232258 0.424903 0.33158 -0.440713 0.939319 0.319542 -0.213861 0.681428 0.470468 -0.772915 0.615467 0.259072 0.52481 -0.734248 0.0443471 0.856866 -0.474483 -0.433347 0.213673 0.27921 0.448409 -0.621319 0.357148 -0.763634 0.615665 0.157302 -1.01165 0.775974 -0.642534 0.485493 0.309778 0.590698 0.224694 -0.334327 -0.163972 -0.0947765 0.216674 -0.614765 -0.84698 0.060213 -0.468551 -0.942456 0.101013 0.763969 0.387714 0.685685 -0.714974 -0.898617 -0.084108 -0.94453 -0.94047 0.673786 -0.606994 -0.281043 0.668321 0.917262 0.657417 0.97042 -0.00369823 0.0597836 -0.161753 0.0986479 -0.836443 -0.741423 0.979121 0.321901 -0.316629 -0.53148 -0.726453 -0.964772 -0.764408 0.0944567 0.314689 0.633186 -0.426877 -0.31851 0.0734096 -0.357169 0.923628 0.919571 0.678066 -0.709361 -0.555272 0.880993 -0.44805 0.605625 -0.783098 -0.631557 -0.208015 -0.128451 -0.885405 -0.693823 0.285917 0.784564 0.95526 0.252297 -0.598025 0.378973 0.513599 0.839705 0.792244 -0.34614 -0.672554 -0.596156 -0.488461 0.430489 0.105893 0.207621 0.350388 0.298264 -1.04554 0.839822 0.859109 -0.231115 -0.532339 -0.613166 0.365243 0.496967 -0.951586 -0.762027 -0.320379 -0.191954 -0.127781 0.668142 -0.75634 -0.183188 0.619159 -0.660682 0.625039 0.833555 -0.23281 0.189953 0.802563 -0.279377 0.534896 -0.854056 0.0897786 -0.0540459 -0.472836 -0.888757 -0.747352 0.876784 -0.683474 0.0887212 -0.0850999 -0.86035 -0.0685337 -0.0707213 0.295141 -0.267221 -0.805902 0.108005 0.609973 0.954175 0.625448 -0.285119 0.426099 0.42957 0.868635 0.865556 0.135877 -0.224373 -0.298447 -0.756175 0.593996 -0.3267 -0.318416 -1.04075 -0.697742 -0.148205 0.759649 0.979897 0.385058 -0.236635 -0.476161 0.0603186 -0.760405 0.815058 0.44438 0.125401 -0.531663 -0.997192 0.542042 -0.0212298 -0.991655 0.406009 0.473838 -0.413992 0.891192 -0.0557816 0.219655 -0.264101 -0.315332 0.259082 -0.747392 -0.844407 0.772794 0.236221 -0.253133 -0.579441 0.979837 -0.170189 -0.834007 -0.505596 0.202666 -0.872616 0.962828 -0.972228 0.914792 -0.379925 -0.433473 -0.958053 -0.844106 0.901864 -0.283105 -0.572454 -0.375696 0.329375 -0.679495 0.968934 -1.0424 -0.371869 0.90852 -0.684744 -0.641003 0.633802 0.617185 -0.891594 -0.484905 0.0734464 -0.895417 -0.903718 0.755654 0.430339 -0.959777 0.223365 0.884518 -0.477108 0.980671 -0.244302 -0.811383 -0.728787 0.581028 -0.691327 -0.0685561 0.0681374 -0.884251 -0.473415 -0.503592 -0.0723969 -0.111695 0.151205 0.40672 -0.826223 -0.619945 -0.0928627 -0.241159 0.177776 0.260507 -0.812851 -0.243663 -0.295084 0.0724204 -0.491806 -0.961852 -0.420454 -0.370076 0.245702 -0.235394 -0.573937 0.643745 -0.443738 0.568801 0.504894 -0.486759 -0.952546 -0.322716 -0.742143 -0.922022 0.0825312 0.154776 -0.31096 -0.114114 -0.894968 0.294217 -0.0181734 -0.633724 -0.199864 -0.695405 -0.967932 -0.329081 -0.516099 0.262185 0.0599062 0.915567 0.661612 0.36921 0.124227 0.905674 0.183244 -0.562671 -0.704945 0.734032 0.246983 -0.0390955 -0.76343 -0.640979 0.110477 -0.259854 -0.634569 -0.261096 -0.566703 -0.698406 0.883959 -0.504864 0.957662 0.689101 -0.492514 0.66924 0.290017 -0.781365 0.733946 -0.741974 -0.444741 0.904888 -0.0277623 -0.362525 -0.887635 -0.420905 -0.103714 -0.463854 0.135895 -0.110886 -0.217516 -0.0124362 0.27968 0.57865 0.417985 -0.0841023 -0.0841726 0.669784 -0.826902 0.806237 0.12673 0.756478 -0.121189 -0.0401929 0.841426 -0.615406 -0.493583 0.939016 -0.908087 0.83177 -0.258991 0.175589 0.516337 0.866995 0.284708 -0.0727669 -0.128699 -0.191697 -0.122049 -0.842237 -0.0984474 0.414329 -0.390318 -0.949359 0.820706 -0.0290924 -0.0404742 -0.499689 -0.951169 0.145057 -0.406537 0.10184 -0.243263 -0.983764 0.271222 -0.711415 -0.744281 -0.700306 -0.311076 -0.382611 0.511441 -0.20411 -0.482525 0.268228 0.938474 0.594547 -0.0504272 -0.560017 0.686647 0.610515 0.208635 0.298902 0.87428 -0.374301 -0.607711 -0.0293331 -0.841638 -0.176085 0.943846 -0.36491 0.165868 -0.522629 -0.321818 -0.870028 0.23859 0.706781 0.637748 0.334435 0.31188 0.675193 -0.248737 -0.176405 -0.699623 0.0101698 0.603154 0.311944 -0.909381 -0.00137207 0.0899716 -0.299824 -0.156563 -0.235556 -0.171797 -0.0507133 -0.26451 -0.639637 -0.00228889 -0.961364 -0.416608 0.367351 -0.501458 0.443272 -0.771906 -0.877476 0.49056 -0.744542 0.111687 0.777767 0.544732 0.600509 -0.428846 0.989953 -0.53379 0.585645 0.868991 -0.177027 0.766314 -0.00315305 0.805767 0.171826 -0.324315 -0.222044 0.00882306 -0.62682 -0.998535 0.27195 -0.963378 0.888546 0.272677 0.166512 0.745078 0.0187135 0.795199 0.917802 -0.183644 0.869275 -0.889436 -0.463288 0.368958 0.43688 0.650988 0.524228 0.231437 -0.82577 0.846889 0.83927 -0.743142 -0.159362 0.613102 -0.44273 -0.618945 -0.407819 -0.056856 0.834712 0.63451 -0.111057 0.932363 0.0764243 0.738467 0.718353 -0.87762 -0.902641 -0.104592 -0.472655 -0.957055 0.798233 -0.992015 -0.231058 0.673682 0.904046 0.647137 -0.701062 0.791317 -0.563827 -0.823296 -0.539247 -0.209166 -0.796116 0.977111 0.972777 -0.0367138 0.284524 -0.234352 0.0180975 0.0824915 -0.30314 -0.386091 0.0351645 -0.106899 -0.992182 0.386665 0.688916 -0.474727 -0.619232 0.813107 -0.065096 -0.451986 0.708708 -0.468899 0.312718 0.530196 0.251336 -0.716434 -0.651564 -0.216652 -0.633484 0.693533 -0.703177 0.301248 0.148839 -0.887204 0.433943 -0.368816 0.158177 0.418501 0.516136 -0.634825 -0.963997 -0.574783 0.862673 -0.767753 -0.482134 -0.895176 -0.0449071 0.528975 0.423664 -0.0524718 0.701607 0.722698 0.121046 -0.297747 0.253882 -0.0381535 0.0917081 0.93939 0.699942 -0.536485 -0.831599 0.671072 -0.502243 0.45439 -0.0471511 -0.683828 -0.241508 -0.490782 -0.00128068 -0.621716 -0.523796 -0.868177 -0.660991 -0.875077 -0.260941 -0.636236 0.905003 -0.413287 -0.997965 -0.751444 -0.598868 0.17667 -0.549377 -0.0594615 -0.802188 -0.744377 0.561449 0.303079 0.811274 -0.104709 0.783197 0.523362 0.57091 0.185644 0.38493 0.710135 -0.195532 0.794855 0.55327 -0.560411 0.244118 0.595386 0.781304 0.901975 0.312784 0.339213 -0.248451 -0.76635 0.0468459 -0.422163 0.826044 -0.700613 -0.997864 0.19602 -0.304666 0.992737 -0.39964 -0.379376 -0.998535 0.619251 -0.769646 -0.231483 -0.254921 -0.0757775 -0.58507 0.795799 0.291151 0.327196 -0.641852 -0.295956 0.781121 0.926511 0.178808 0.886776 -0.221966 -0.165746 -0.84051 0.648732 0.930052 -0.591418 0.297098 0.78283 0.50029 0.940489 0.493149 -0.738884 -0.458663 -0.638844 -0.318705 -0.899716 -0.448164 -0.468429 0.209667 -0.531886 -0.580429 0.679794 -0.210197 0.0732356 0.431992 0.524096 -0.682204 0.957843 -0.726288 -0.282166 -0.0917624 0.675901 -0.353969 0.0586104 0.399213 0.970824 0.496628 -0.858089 -0.295694 -0.979186 -0.436567 0.950133 -0.726737 -0.724128 0.0907867 0.967676 0.0053308 -0.0130134 -0.481453 -0.617534 0.908811 0.439809 -0.0816768 0.900203 -0.160795 0.0769361 -0.869339 0.831841 -0.406317 -0.655613 0.171632 -0.116734 -0.281654 -0.402753 -0.023957 -0.689566 -0.672781 -0.0808435 -0.890072 0.95764 -0.8034 0.00790896 -0.630931 -0.235912 0.528659 -0.816017 -0.982054 -0.713208 0.630691 0.549755 0.496617 -0.203889 0.9069 0.469662 0.451393 -0.476058 -0.724022 0.175461 0.769596 0.592166 0.639918 -0.0457607 0.684428 0.30885 -0.540208 0.60332 0.417829 -0.863582 -0.19846 0.420881 0.490146 0.188988 -0.736663 0.765958 -0.668606 -0.367779 0.00155877 0.234447 -0.933524 0.628547 -0.767279 0.44433 0.210384 0.259358 0.348612 -0.368333 -0.748377 0.279156 -0.63767 -0.938984 -0.192195 0.967823 -0.500473 0.211341 -0.920103 0.687918 0.545779 -0.0432861 0.684784 0.893445 0.243345 -0.288773 -0.57458 0.996329 -0.0345948 -0.329256 0.964421 0.651498 0.034146 0.0036295 0.0333168 0.0694057 0.945942 0.539753 0.358537 -0.0108147 -0.0915852 0.321018 -0.347673 -0.263929 0.943724 0.72338 0.740812 0.923535 -0.238199 -0.167212 0.691385 -0.460032 -0.0341885 -0.759581 0.566401 -0.215802 -0.342747 -0.622918 -0.2132 0.34294 0.917553 0.32044 -0.244366 0.653536 -0.525102 0.380116 0.754865 -0.495967 0.535572 -0.922841 0.770452 0.0978549 0.87994 -0.761284 0.0154272 -0.738794 0.422387 0.486385 0.168421 -0.732938 -0.391218 0.871899 -0.0819698 0.187686 0.249971 -0.645089 -0.0932265 0.763985 -0.444392 -0.769395 0.428669 -0.00652819 -0.694028 -0.282221 -0.689437 -0.700386 -0.289197 -0.513118 -0.83079 -0.294093 0.356242 -0.383587 -0.681143 -0.517383 -0.906684 -0.559422 -0.180093 -0.940624 -0.22708 0.978057 0.708254 0.566632 -0.277778 -0.336512 0.223544 0.753567 -0.506094 0.449469 0.54865 0.608931 0.0488279 -0.546363 -0.662165 0.504981 -0.188672 0.0813382 -0.69157 0.147653 0.817194 -0.0838343 0.290319 0.204207 0.277448 -0.973921 -0.0412186 0.854391 0.937958 0.226143 -0.476747 0.0800325 0.474488 0.0901222 1.05104 -0.784069 -0.632728 0.817347 0.0592543 0.156557 -0.666307 0.0620812 0.508574 -0.0504212 -0.210457 0.514551 -0.464686 -0.705137 0.794244 -0.92217 -0.493933 0.504666 -0.663941 0.463131 0.162417 -0.641456 -0.254678 -0.56148 0.632252 0.679786 -0.690381 -0.783456 0.681066 0.116928 -0.391468 -0.936233 -0.076864 -0.561225 0.411163 -0.615375 -0.929536 0.15631 0.976354 0.961506 -0.257089 -0.816988 0.0372021 -0.723189 -0.831405 0.608688 